{"learner":{"attributes":{"scikit_learn":"{\"_estimator_type\": \"classifier\"}"},"feature_names":[],"feature_types":[],"gradient_booster":{"model":{"cats":{"enc":[],"feature_segments":[],"sorted_idx":[]},"gbtree_model_param":{"num_parallel_tree":"1","num_trees":"400"},"iteration_indptr":[0,1,2,3,4,5,6,7,8,9,10,11,12,13,14,15,16,17,18,19,20,21,22,23,24,25,26,27,28,29,30,31,32,33,34,35,36,37,38,39,40,41,42,43,44,45,46,47,48,49,50,51,52,53,54,55,56,57,58,59,60,61,62,63,64,65,66,67,68,69,70,71,72,73,74,75,76,77,78,79,80,81,82,83,84,85,86,87,88,89,90,91,92,93,94,95,96,97,98,99,100,101,102,103,104,105,106,107,108,109,110,111,112,113,114,115,116,117,118,119,120,121,122,123,124,125,126,127,128,129,130,131,132,133,134,135,136,137,138,139,140,141,142,143,144,145,146,147,148,149,150,151,152,153,154,155,156,157,158,159,160,161,162,163,164,165,166,167,168,169,170,171,172,173,174,175,176,177,178,179,180,181,182,183,184,185,186,187,188,189,190,191,192,193,194,195,196,197,198,199,200,201,202,203,204,205,206,207,208,209,210,211,212,213,214,215,216,217,218,219,220,221,222,223,224,225,226,227,228,229,230,231,232,233,234,235,236,237,238,239,240,241,242,243,244,245,246,247,248,249,250,251,252,253,254,255,256,257,258,259,260,261,262,263,264,265,266,267,268,269,270,271,272,273,274,275,276,277,278,279,280,281,282,283,284,285,286,287,288,289,290,291,292,293,294,295,296,297,298,299,300,301,302,303,304,305,306,307,308,309,310,311,312,313,314,315,316,317,318,319,320,321,322,323,324,325,326,327,328,329,330,331,332,333,334,335,336,337,338,339,340,341,342,343,344,345,346,347,348,349,350,351,352,353,354,355,356,357,358,359,360,361,362,363,364,365,366,367,368,369,370,371,372,373,374,375,376,377,378,379,380,381,382,383,384,385,386,387,388,389,390,391,392,393,394,395,396,397,398,399,400],"tree_info":[0,0,0,0,0,0,0,0,0,0,0,0,0,0,0,0,0,0,0,0,0,0,0,0,0,0,0,0,0,0,0,0,0,0,0,0,0,0,0,0,0,0,0,0,0,0,0,0,0,0,0,0,0,0,0,0,0,0,0,0,0,0,0,0,0,0,0,0,0,0,0,0,0,0,0,0,0,0,0,0,0,0,0,0,0,0,0,0,0,0,0,0,0,0,0,0,0,0,0,0,0,0,0,0,0,0,0,0,0,0,0,0,0,0,0,0,0,0,0,0,0,0,0,0,0,0,0,0,0,0,0,0,0,0,0,0,0,0,0,0,0,0,0,0,0,0,0,0,0,0,0,0,0,0,0,0,0,0,0,0,0,0,0,0,0,0,0,0,0,0,0,0,0,0,0,0,0,0,0,0,0,0,0,0,0,0,0,0,0,0,0,0,0,0,0,0,0,0,0,0,0,0,0,0,0,0,0,0,0,0,0,0,0,0,0,0,0,0,0,0,0,0,0,0,0,0,0,0,0,0,0,0,0,0,0,0,0,0,0,0,0,0,0,0,0,0,0,0,0,0,0,0,0,0,0,0,0,0,0,0,0,0,0,0,0,0,0,0,0,0,0,0,0,0,0,0,0,0,0,0,0,0,0,0,0,0,0,0,0,0,0,0,0,0,0,0,0,0,0,0,0,0,0,0,0,0,0,0,0,0,0,0,0,0,0,0,0,0,0,0,0,0,0,0,0,0,0,0,0,0,0,0,0,0,0,0,0,0,0,0,0,0,0,0,0,0,0,0,0,0,0,0,0,0,0,0,0,0,0,0,0,0,0,0,0,0,0,0,0,0,0,0,0,0,0,0,0,0,0,0,0,0,0,0,0,0,0,0,0,0,0,0,0,0,0,0,0,0,0,0],"trees":[{"base_weights":[3.9469646E-3,-1.994764E0,1.3834738E0,-2.2528236E0,6.9667494E-1,6.528469E-1,1.5700433E0,-2.302772E0,5.545135E-1,9.0772957E-1,-1.7436216E0,1.1134742E0,2.6349506E-1,5.79682E-1,1.5860343E0,5.733291E-2,-2.319679E0,1.375937E0,-1.6788689E0,4.8200795E-1,6.545298E-2,-8.4455654E-2,-4.950956E-1,9.544653E-1,6.1980203E-2,-9.4177735E-1,5.254912E-1,-1.0774491E0,1.55669E0,1.4027827E0,1.6161041E0,-2.355987E0,-1.6474197E0,4.9706644E-1,6.407332E-2,-7.649655E-2,-2.4290552E-2,-4.1650843E-2,1.0459999E0,-4.981286E-2,1.2644796E-2,1.007825E0,-7.1354765E-1,4.3935504E-2,-1.0619406E0,-1.0129231E0,6.3308746E-1,-1.3852404E0,4.200964E-3,2.5411488E-2,6.4493105E-2,1.4429268E0,5.981356E-1,1.5908816E0,6.659595E-2,-2.1658936E0,-2.3866913E0,-2.0685709E0,-7.394889E-1,4.8575144E-2,-8.743173E-2,-7.912863E-1,4.9383616E-1,1.1202012E0,-9.645755E-3,1.0441401E0,-6.4774615E-1,-1.4620725E0,4.4418763E-2,-1.6056675E0,-8.2655674E-1,5.799458E-1,-1.5948538E0,7.0157474E-1,-1.2811687E0,-7.7091265E-1,-1.7284465E0,8.449608E-1,1.4727768E0,7.419959E-1,-1.1171125E-2,-3.957642E-3,1.5946387E0,-9.526996E-2,-2.0191047E-2,-9.766531E-2,-9.086657E-2,-6.3392736E-2,-9.3352415E-2,3.4886375E-2,-3.676166E-2,-1.325474E-2,6.471888E-3,-7.493439E-3,-7.437369E-2,4.6538074E-2,-9.527007E-3,3.6138933E-2,6.315698E-2,-5.5015865E-3,4.3865185E-2,1.0834245E-2,-6.6892065E-2,-1.9148981E-2,-7.591775E-2,-2.4889683E-2,-8.721426E-2,-1.948586E-2,-7.374552E-2,4.3935504E-2,-1.325474E-2,-6.4295E-3,-7.0507795E-2,6.1943337E-2,2.3386668E-2,-7.943924E-2,4.200964E-3,-5.7669282E-2,2.0866172E-2,-8.252754E-2,-3.282706E-2,5.9892125E-2,-2.4141943E-2,5.9488878E-2,1.919045E-2,4.698577E-2,1.7535467E-2,6.417287E-2,5.3778376E-2],"categories":[],"categories_nodes":[],"categories_segments":[],"categories_sizes":[],"default_left":[0,0,0,0,0,0,0,0,0,0,0,0,0,0,0,0,0,0,0,0,0,0,0,0,0,0,0,0,0,0,0,0,0,0,0,0,0,0,0,0,0,0,0,0,0,0,0,0,0,0,0,0,0,0,0,0,0,0,0,0,0,0,0,0,0,0,0,0,0,0,0,0,0,0,0,0,0,0,0,0,0,0,0,0,0,0,0,0,0,0,0,0,0,0,0,0,0,0,0,0,0,0,0,0,0,0,0,0,0,0,0,0,0,0,0,0,0,0,0,0,0,0,0,0,0,0,0,0,0],"id":0,"left_children":[1,3,5,7,9,11,13,15,17,19,21,23,25,27,29,-1,31,33,35,37,-1,-1,39,41,-1,43,45,47,49,51,53,55,57,59,-1,-1,-1,61,63,-1,-1,65,67,-1,69,71,73,75,-1,-1,-1,77,79,81,-1,83,85,87,89,-1,91,93,95,97,-1,99,101,103,-1,105,107,109,111,113,115,117,119,121,123,125,-1,-1,127,-1,-1,-1,-1,-1,-1,-1,-1,-1,-1,-1,-1,-1,-1,-1,-1,-1,-1,-1,-1,-1,-1,-1,-1,-1,-1,-1,-1,-1,-1,-1,-1,-1,-1,-1,-1,-1,-1,-1,-1,-1,-1,-1,-1,-1,-1],"loss_changes":[1.8553215E4,1.9101729E3,5.4142773E2,3.530752E2,1.2569346E2,1.4513129E2,4.9075195E1,1.5905273E2,8.4113075E1,6.805679E1,7.647743E0,2.4017792E1,1.3979651E2,8.600328E1,1.4620605E1,0E0,5.559961E1,5.584095E0,1.6930733E0,4.209135E1,0E0,0E0,4.019573E0,2.5215393E1,0E0,2.0550339E1,6.0720924E1,7.501726E0,4.5264435E-1,1.3396179E1,3.149414E-1,7.9472656E0,4.75838E1,3.7104669E0,0E0,0E0,0E0,3.0333824E1,6.9014893E0,0E0,0E0,1.6759247E1,1.4013025E1,0E0,8.059097E0,2.3332935E1,4.543181E1,1.7690983E0,0E0,0E0,0E0,6.121521E0,3.169755E0,1.1644531E1,0E0,1.18482666E2,6.567383E0,7.151123E0,1.3123375E1,0E0,4.0159184E-1,1.9774353E1,2.193992E1,4.7902527E0,0E0,1.6470154E1,6.508904E0,1.8052998E0,0E0,1.0537788E1,1.7750805E1,3.8077133E0,3.8421059E0,3.1466599E1,1.2171385E1,7.440029E0,8.410053E-1,2.248375E1,4.883545E0,1.979845E0,0E0,0E0,1.8647461E0,0E0,0E0,0E0,0E0,0E0,0E0,0E0,0E0,0E0,0E0,0E0,0E0,0E0,0E0,0E0,0E0,0E0,0E0,0E0,0E0,0E0,0E0,0E0,0E0,0E0,0E0,0E0,0E0,0E0,0E0,0E0,0E0,0E0,0E0,0E0,0E0,0E0,0E0,0E0,0E0,0E0,0E0,0E0,0E0,0E0,0E0],"parents":[2147483647,0,0,1,1,2,2,3,3,4,4,5,5,6,6,7,7,8,8,9,9,10,10,11,11,12,12,13,13,14,14,16,16,17,17,18,18,19,19,22,22,23,23,25,25,26,26,27,27,28,28,29,29,30,30,31,31,32,32,33,33,37,37,38,38,41,41,42,42,44,44,45,45,46,46,47,47,51,51,52,52,53,53,55,55,56,56,57,57,58,58,60,60,61,61,62,62,63,63,65,65,66,66,67,67,69,69,70,70,71,71,72,72,73,73,74,74,75,75,76,76,77,77,78,78,79,79,82,82],"right_children":[2,4,6,8,10,12,14,16,18,20,22,24,26,28,30,-1,32,34,36,38,-1,-1,40,42,-1,44,46,48,50,52,54,56,58,60,-1,-1,-1,62,64,-1,-1,66,68,-1,70,72,74,76,-1,-1,-1,78,80,82,-1,84,86,88,90,-1,92,94,96,98,-1,100,102,104,-1,106,108,110,112,114,116,118,120,122,124,126,-1,-1,128,-1,-1,-1,-1,-1,-1,-1,-1,-1,-1,-1,-1,-1,-1,-1,-1,-1,-1,-1,-1,-1,-1,-1,-1,-1,-1,-1,-1,-1,-1,-1,-1,-1,-1,-1,-1,-1,-1,-1,-1,-1,-1,-1,-1,-1,-1],"split_conditions":[9.8853326E-1,7.368421E-1,6E-1,9.8375064E-1,1.9829415E-2,2.3958978E-16,2.2229682E-1,1.8870945E-5,1.9829415E-2,9.602381E-1,8.541667E-1,2.5225E-1,1.4355293E-2,7.5E-1,7E-1,5.733291E-2,6.666667E-1,5.5376345E-1,4.9449503E-1,1E0,6.545298E-2,-8.4455654E-2,3.3812442E-1,9.390875E-1,6.1980203E-2,9.9013513E-1,1.7642169E-1,2.080245E-1,8.0701756E-1,8.196805E-1,1E0,6.000066E-1,1E0,2.9235035E-1,6.407332E-2,-7.649655E-2,-2.4290552E-2,8.108108E-1,7.8971887E-1,-4.981286E-2,1.2644796E-2,9.886719E-1,9.859967E-1,4.3935504E-2,9.9999994E-1,3.5060486E-1,1.9829415E-2,1.0914267E-1,4.200964E-3,2.5411488E-2,6.4493105E-2,2.8605908E-1,9.8610914E-1,2.54508E-1,6.659595E-2,1E0,9.9980843E-1,6.350891E-1,4.6266025E-1,4.8575144E-2,4.8759893E-1,6.921281E-1,1.0823951E-1,8.730159E-1,-9.645755E-3,2.2229682E-1,5.3698826E-1,3.065758E-18,4.4418763E-2,9.9702305E-1,8.30596E-1,4.1502487E-2,3.6248923E-3,9.9702305E-1,4.3841857E-1,1.6563619E-2,6.666667E-1,2.3995854E-1,9.8472685E-1,3.065758E-18,-1.1171125E-2,-3.957642E-3,9.5238096E-1,-9.526996E-2,-2.0191047E-2,-9.766531E-2,-9.086657E-2,-6.3392736E-2,-9.3352415E-2,3.4886375E-2,-3.676166E-2,-1.325474E-2,6.471888E-3,-7.493439E-3,-7.437369E-2,4.6538074E-2,-9.527007E-3,3.6138933E-2,6.315698E-2,-5.5015865E-3,4.3865185E-2,1.0834245E-2,-6.6892065E-2,-1.9148981E-2,-7.591775E-2,-2.4889683E-2,-8.721426E-2,-1.948586E-2,-7.374552E-2,4.3935504E-2,-1.325474E-2,-6.4295E-3,-7.0507795E-2,6.1943337E-2,2.3386668E-2,-7.943924E-2,4.200964E-3,-5.7669282E-2,2.0866172E-2,-8.252754E-2,-3.282706E-2,5.9892125E-2,-2.4141943E-2,5.9488878E-2,1.919045E-2,4.698577E-2,1.7535467E-2,6.417287E-2,5.3778376E-2],"split_indices":[0,3,3,15,6,15,8,11,6,15,3,11,15,3,3,0,3,3,7,11,0,0,8,8,0,0,8,8,3,8,3,11,11,8,0,0,0,3,8,0,0,6,8,0,0,3,6,11,0,0,0,8,6,8,0,7,11,8,8,0,3,8,15,3,0,8,3,15,0,0,8,11,11,0,8,11,3,8,6,15,0,0,3,0,0,0,0,0,0,0,0,0,0,0,0,0,0,0,0,0,0,0,0,0,0,0,0,0,0,0,0,0,0,0,0,0,0,0,0,0,0,0,0,0,0,0,0,0,0],"split_type":[0,0,0,0,0,0,0,0,0,0,0,0,0,0,0,0,0,0,0,0,0,0,0,0,0,0,0,0,0,0,0,0,0,0,0,0,0,0,0,0,0,0,0,0,0,0,0,0,0,0,0,0,0,0,0,0,0,0,0,0,0,0,0,0,0,0,0,0,0,0,0,0,0,0,0,0,0,0,0,0,0,0,0,0,0,0,0,0,0,0,0,0,0,0,0,0,0,0,0,0,0,0,0,0,0,0,0,0,0,0,0,0,0,0,0,0,0,0,0,0,0,0,0,0,0,0,0,0,0],"sum_hessian":[6.726844E3,2.7467417E3,3.9801025E3,2.5066045E3,2.4013718E2,8.106282E2,3.1694744E3,2.4629978E3,4.36067E1,2.2163736E2,1.8499813E1,3.7035663E2,4.402715E2,5.1054676E1,3.1184197E3,1.069145E1,2.4523064E3,3.2194477E1,1.1412222E1,1.4103104E2,8.060632E1,1.3694667E1,4.805146E0,2.7389334E2,9.646331E1,7.8083626E1,3.621879E2,1.8860199E1,3.2194477E1,4.4675845E2,2.6716611E3,2.3241292E3,1.2817728E2,7.327848E0,2.486663E1,8.649263E0,2.762959E0,7.351874E1,6.75123E1,2.2824445E0,2.5227017E0,2.658447E2,8.04862E0,3.844117E0,7.423951E1,2.3064701E1,3.391232E2,1.4895953E1,3.9642456E0,2.6428304E0,2.955165E1,4.246548E2,2.2103672E1,1.7847513E3,8.8690985E2,3.3359726E2,1.9905317E3,8.661276E1,4.1564514E1,2.8830876E0,4.4447603E0,3.0512678E1,4.3006058E1,6.402857E1,3.483731E0,2.6055905E2,5.2856607E0,5.886304E0,2.1623158E0,2.0542E1,5.369751E1,6.126561E0,1.693814E1,3.2807135E2,1.1051836E1,6.6070757E0,8.2888775E0,2.1743286E1,4.029115E2,1.9220585E1,2.8830876E0,3.844117E0,1.7809072E3,2.9479572E2,3.8801556E1,1.3328274E3,6.577044E2,3.327564E1,5.3337124E1,3.7239883E0,3.7840527E1,2.2824445E0,2.1623158E0,2.0301743E1,1.0210936E1,2.22238E1,2.0782257E1,4.5648888E1,1.8379684E1,1.0931707E1,2.4962733E2,3.123345E0,2.1623158E0,2.5227017E0,3.3636024E0,8.409006E0,1.2132994E1,4.1444386E1,1.2253122E1,3.844117E0,2.2824445E0,2.0421872E0,1.4895953E1,3.8200912E1,2.8987042E2,7.0875907E0,3.9642456E0,4.3246317E0,2.2824445E0,5.0454035E0,3.2434735E0,1.5016082E1,6.7272043E0,3.9654468E2,6.3668184E0,6.6070757E0,1.2613508E1,1.7089502E3,7.195706E1],"tree_param":{"num_deleted":"0","num_feature":"50","num_nodes":"129","size_leaf_vector":"1"}},{"base_weights":[6.1502196E-3,-1.877902E0,1.3366778E0,-2.122033E0,7.203403E-1,-9.0056694E-1,1.5513655E0,-2.1628506E0,9.7864085E-1,-1.5526978E0,1.1139089E0,6.1714567E-2,-1.2298149E0,1.0430799E0,1.584374E0,5.6899536E-2,-2.1805472E0,1.430799E0,-9.67417E-1,-1.8256198E0,4.7129024E-2,1.2393092E0,-1.4426057E0,-1.673133E0,-5.0027627E-1,6.8366647E-1,1.334102E0,1.6007341E0,1.3465552E0,-2.2131107E0,-1.5756747E0,2.446334E-2,6.087337E-2,-6.2465865E-2,7.809184E-3,-8.3565824E-2,-2.5443637E-1,3.5827252E-1,1.3840574E0,-5.2384487E-3,-1.7507914E0,-1.7830068E0,2.9278567E-1,5.4978806E-1,-8.9516664E-1,-4.6260512E-1,1.1867768E0,1.4413218E0,-1.1842643E-1,8.5609794E-1,1.6039344E0,1.12662E0,1.489596E0,-2.216072E0,3.1366885E-2,-9.309326E-2,-3.654412E-1,4.639278E-2,-6.622481E-2,-3.5820007E-1,9.3344265E-1,6.4246744E-2,1.2034949E0,-7.988038E-2,-2.8491765E-2,-1.9651586E0,-3.63276E-1,1.1787462E0,-7.024924E-2,1.1964135E0,-1.7090173E-1,6.970733E-1,-1.0499631E0,8.058542E-1,-8.5200965E-1,1.4997289E0,3.4893057E-1,5.986807E-2,-3.8598701E-3,-1.0537065E0,4.9214788E-2,-5.386704E-1,5.6653332E-2,1.4249167E0,1.6126629E0,1.2811471E0,4.3231806E-1,6.0366783E-2,2.0268342E-2,-8.881664E-2,-4.1604612E-2,2.3219248E-2,-6.835519E-2,4.304833E-2,-2.900144E-2,1.5996993E-2,5.7043325E-2,1.56103E-2,5.5364802E-2,-8.8963754E-2,-6.204742E-2,-2.4850167E-2,4.5557108E-2,1.9328939E-2,5.3724222E-2,5.7817176E-2,3.5292585E-3,9.745193E-3,-5.2030426E-2,5.4008856E-2,-2.9322319E-2,-6.710458E-2,-2.2622023E-2,4.0591205E-3,5.1025633E-2,3.64736E-2,-4.9757622E-2,4.771203E-3,6.2191766E-2,5.6966666E-2,-5.0474055E-2,-7.123431E-2,5.9777885E-3,-4.5447238E-2,6.965258E-3,5.804294E-2,1.6563078E-2,2.0183606E-2,6.453197E-2,5.301295E-2,-7.216994E-3,4.870715E-2,-2.2079555E-2],"categories":[],"categories_nodes":[],"categories_segments":[],"categories_sizes":[],"default_left":[0,0,0,0,0,0,0,0,0,0,0,0,0,0,0,0,0,0,0,0,0,0,0,0,0,0,0,0,0,0,0,0,0,0,0,0,0,0,0,0,0,0,0,0,0,0,0,0,0,0,0,0,0,0,0,0,0,0,0,0,0,0,0,0,0,0,0,0,0,0,0,0,0,0,0,0,0,0,0,0,0,0,0,0,0,0,0,0,0,0,0,0,0,0,0,0,0,0,0,0,0,0,0,0,0,0,0,0,0,0,0,0,0,0,0,0,0,0,0,0,0,0,0,0,0,0,0,0,0,0,0,0,0],"id":1,"left_children":[1,3,5,7,9,11,13,15,17,19,21,-1,23,25,27,-1,29,31,33,35,-1,37,39,41,43,45,47,49,51,53,55,-1,-1,-1,-1,-1,57,59,61,-1,63,65,67,69,71,73,75,77,79,81,83,85,87,89,-1,-1,91,-1,-1,93,95,-1,97,-1,-1,99,101,103,-1,105,107,109,111,113,115,117,119,-1,-1,121,-1,123,-1,125,127,129,131,-1,-1,-1,-1,-1,-1,-1,-1,-1,-1,-1,-1,-1,-1,-1,-1,-1,-1,-1,-1,-1,-1,-1,-1,-1,-1,-1,-1,-1,-1,-1,-1,-1,-1,-1,-1,-1,-1,-1,-1,-1,-1,-1,-1,-1,-1],"loss_changes":[1.6956354E4,1.7775537E3,1.9056504E3,3.261748E2,2.1744226E2,2.816038E2,5.878125E1,1.6348633E2,3.127127E1,2.9029678E1,6.787317E1,0E0,9.824136E1,2.2287247E1,1.0759766E1,0E0,4.5664062E1,9.414139E-1,5.24231E0,1.2952644E1,0E0,2.4470276E1,3.651657E0,4.1811096E1,4.9274086E1,5.962129E1,1.9368713E1,5.9370117E0,5.145355E0,2.3036133E1,1.1903909E2,0E0,0E0,0E0,0E0,0E0,1.3764815E1,1.2451582E1,4.5585327E0,0E0,3.5437012E-1,4.574945E1,2.1785252E1,1.5535562E1,2.1934715E1,1.6430832E1,1.8023987E1,1.0005478E1,1.29796505E1,1.3234228E1,2.3295898E0,9.266693E0,1.5940247E0,9.52832E0,0E0,0E0,6.698808E1,0E0,0E0,7.9417806E0,3.606861E0,0E0,1.3587357E1,0E0,0E0,1.3296143E1,9.112539E0,1.09918594E-1,0E0,4.5268555E0,8.036259E0,8.667421E0,2.2763657E1,2.3596425E0,1.83997E1,3.5712204E0,3.7869358E1,0E0,0E0,5.730787E0,0E0,2.515053E0,0E0,3.333313E0,1.090332E0,5.231659E0,1.5102825E1,0E0,0E0,0E0,0E0,0E0,0E0,0E0,0E0,0E0,0E0,0E0,0E0,0E0,0E0,0E0,0E0,0E0,0E0,0E0,0E0,0E0,0E0,0E0,0E0,0E0,0E0,0E0,0E0,0E0,0E0,0E0,0E0,0E0,0E0,0E0,0E0,0E0,0E0,0E0,0E0,0E0,0E0,0E0,0E0,0E0,0E0],"parents":[2147483647,0,0,1,1,2,2,3,3,4,4,5,5,6,6,7,7,8,8,9,9,10,10,12,12,13,13,14,14,16,16,17,17,18,18,19,19,21,21,22,22,23,23,24,24,25,25,26,26,27,27,28,28,29,29,30,30,36,36,37,37,38,38,40,40,41,41,42,42,43,43,44,44,45,45,46,46,47,47,48,48,49,49,50,50,51,51,52,52,53,53,56,56,59,59,60,60,62,62,65,65,66,66,67,67,69,69,70,70,71,71,72,72,73,73,74,74,75,75,76,76,79,79,81,81,83,83,84,84,85,85,86,86],"right_children":[2,4,6,8,10,12,14,16,18,20,22,-1,24,26,28,-1,30,32,34,36,-1,38,40,42,44,46,48,50,52,54,56,-1,-1,-1,-1,-1,58,60,62,-1,64,66,68,70,72,74,76,78,80,82,84,86,88,90,-1,-1,92,-1,-1,94,96,-1,98,-1,-1,100,102,104,-1,106,108,110,112,114,116,118,120,-1,-1,122,-1,124,-1,126,128,130,132,-1,-1,-1,-1,-1,-1,-1,-1,-1,-1,-1,-1,-1,-1,-1,-1,-1,-1,-1,-1,-1,-1,-1,-1,-1,-1,-1,-1,-1,-1,-1,-1,-1,-1,-1,-1,-1,-1,-1,-1,-1,-1,-1,-1,-1,-1],"split_conditions":[9.8853326E-1,7.368421E-1,1.4020935E-1,9.9855655E-1,2.4284822E-1,9.905799E-1,2.5468695E-1,1.8870945E-5,1.9829415E-2,9.602381E-1,1.4351521E-3,6.1714567E-2,7.589147E-2,5.628728E-1,3.0708647E-1,5.6899536E-2,6.666667E-1,2.5786528E-1,7.856796E-2,1.9876854E-1,4.7129024E-2,2.8542957E-1,3.3375815E-1,2.5225E-1,3.065758E-18,5.907972E-1,9.4961786E-1,2.3269297E-1,6.666667E-1,1E0,2.8784245E-1,2.446334E-2,6.087337E-2,-6.2465865E-2,7.809184E-3,-8.3565824E-2,1.9829415E-2,8.5714287E-1,7.816293E-1,-5.2384487E-3,2.4930472E-2,6.25E-2,1.5869645E-16,5.0492173E-1,8.024056E-1,3.3375815E-1,2.3446013E-1,1.9829415E-2,2.5000006E-1,2.9362872E-1,2.800864E-1,3.4110382E-1,1E0,9.777825E-1,3.1366885E-2,-9.309326E-2,3.069653E-1,4.639278E-2,-6.622481E-2,7.517354E-1,9.4608974E-1,6.4246744E-2,9.8219967E-1,-7.988038E-2,-2.8491765E-2,4.790968E-1,7.619048E-1,2.8742338E-2,-7.024924E-2,1.2725346E-2,7.8971887E-1,2.3446013E-1,3.9709812E-1,2.9287618E-1,2.5641026E-2,2.1552771E-2,4.971671E-1,5.986807E-2,-3.8598701E-3,9.859967E-1,4.9214788E-2,4.7197644E-2,5.6653332E-2,9.337908E-1,1.757469E-3,9.9993145E-1,3.5013795E-1,6.0366783E-2,2.0268342E-2,-8.881664E-2,-4.1604612E-2,2.3219248E-2,-6.835519E-2,4.304833E-2,-2.900144E-2,1.5996993E-2,5.7043325E-2,1.56103E-2,5.5364802E-2,-8.8963754E-2,-6.204742E-2,-2.4850167E-2,4.5557108E-2,1.9328939E-2,5.3724222E-2,5.7817176E-2,3.5292585E-3,9.745193E-3,-5.2030426E-2,5.4008856E-2,-2.9322319E-2,-6.710458E-2,-2.2622023E-2,4.0591205E-3,5.1025633E-2,3.64736E-2,-4.9757622E-2,4.771203E-3,6.2191766E-2,5.6966666E-2,-5.0474055E-2,-7.123431E-2,5.9777885E-3,-4.5447238E-2,6.965258E-3,5.804294E-2,1.6563078E-2,2.0183606E-2,6.453197E-2,5.301295E-2,-7.216994E-3,4.870715E-2,-2.2079555E-2],"split_indices":[0,3,2,15,2,0,2,11,6,15,0,0,2,8,2,0,3,2,5,5,0,2,8,11,15,3,8,3,3,5,2,0,0,0,0,0,6,3,11,0,15,5,15,3,14,8,11,6,11,2,2,5,2,0,0,0,2,0,0,11,11,0,11,0,0,8,3,2,0,5,8,11,8,3,5,5,8,0,0,8,0,5,0,8,5,15,8,0,0,0,0,0,0,0,0,0,0,0,0,0,0,0,0,0,0,0,0,0,0,0,0,0,0,0,0,0,0,0,0,0,0,0,0,0,0,0,0,0,0,0,0,0,0],"split_type":[0,0,0,0,0,0,0,0,0,0,0,0,0,0,0,0,0,0,0,0,0,0,0,0,0,0,0,0,0,0,0,0,0,0,0,0,0,0,0,0,0,0,0,0,0,0,0,0,0,0,0,0,0,0,0,0,0,0,0,0,0,0,0,0,0,0,0,0,0,0,0,0,0,0,0,0,0,0,0,0,0,0,0,0,0,0,0,0,0,0,0,0,0,0,0,0,0,0,0,0,0,0,0,0,0,0,0,0,0,0,0,0,0,0,0,0,0,0,0,0,0,0,0,0,0,0,0,0,0,0,0,0,0],"sum_hessian":[6.7622085E3,2.7987039E3,3.9635044E3,2.5585264E3,2.4017755E2,3.467184E2,3.616786E3,2.5256135E3,3.29128E1,3.4975986E1,2.0520155E2,4.0698074E1,3.0602032E2,2.2272601E2,3.39406E3,1.1987012E1,2.5136265E3,2.6963991E1,5.948811E0,3.2132828E1,2.8431597E0,1.9613522E2,9.066332E0,1.8946053E2,1.1655982E2,1.0130582E2,1.2142019E2,3.1698457E3,2.2421432E2,2.3825374E3,1.3108911E2,3.5784564E0,2.3385534E1,3.7665515E0,2.1822596E0,2.7180658E1,4.9521704E0,2.8264462E1,1.6787076E2,2.0577843E0,7.0085473E0,1.7956848E2,9.892045E0,3.1678122E1,8.48817E1,3.08652E1,7.044062E1,1.13144844E2,8.275345E0,1.4847896E1,3.1549978E3,9.21313E1,1.3208302E2,2.3804795E3,2.057865E0,8.0244705E1,5.08444E1,2.514799E0,2.437371E0,1.2676759E1,1.5587703E1,7.148607E1,9.63847E1,4.8414187E0,2.1671286E0,1.5874664E2,2.0821836E1,7.236593E0,2.655452E0,1.6422237E1,1.5255885E1,7.1533184E0,7.772838E1,6.938205E0,2.3926994E1,5.06227E1,1.9817923E1,1.0930048E2,3.8443615E0,5.059745E0,3.2156E0,4.2147655E0,1.063313E1,1.5484775E2,3.00015E3,7.454988E1,1.7581423E1,1.288793E2,3.20372E0,2.3707485E3,9.731132E0,3.0125996E1,2.0718403E1,2.1323698E0,1.054439E1,8.4506445E0,7.1370573E0,1.8192036E1,7.819266E1,9.4822296E1,6.3924343E1,1.8327417E1,2.4944186E0,2.2526164E0,4.983977E0,1.3086949E1,3.3352876E0,1.1670123E1,3.585762E0,4.9969745E0,2.1563437E0,3.269542E1,4.503296E1,3.3476963E0,3.5905087E0,4.062483E0,1.9864511E1,2.1329618E0,4.848974E1,1.19913435E1,7.826578E0,2.906245E0,2.1534998E0,2.046011E0,2.1687543E0,1.5042097E2,4.426777E0,2.2678342E0,2.997882E3,7.251959E1,2.030292E0,9.703599E0,7.8778243E0],"tree_param":{"num_deleted":"0","num_feature":"50","num_nodes":"133","size_leaf_vector":"1"}},{"base_weights":[6.1246366E-3,1.0083735E0,-1.7704426E0,-1.6954843E0,1.3020651E0,-1.9217379E0,1.3412268E0,-1.7624142E0,5.2818436E-2,2.4405949E-1,1.3595264E0,-2.0245194E0,-1.2850469E0,-1.3123176E0,1.4969544E0,-2.09504E0,-1.287303E0,1.0560368E0,-4.8874974E-1,-7.1964495E-2,1.4051965E0,-1.8794785E0,-2.1312373E0,-5.267303E-1,-2.0422802E0,-6.8263024E-2,-2.1298496E-2,1.5321685E0,-7.5229644E-3,-2.1152859E0,-1.9867055E-2,-1.8534509E0,9.535372E-1,-5.563299E-1,1.3848921E0,-1.82621E0,3.8419284E-2,-1.803426E0,1.2147167E0,1.4638505E0,1.0852063E0,-2.0730124E0,-1.5109637E0,-1.1843842E0,-8.538137E-2,-1.9875655E0,-1.5922617E-2,-1.3931578E0,-8.4193476E-2,1.6760625E-2,6.2330052E-2,-2.131861E0,-2.4604172E-2,-2.0839868E0,-8.0203915E-1,5.8073327E-2,-4.755039E-1,-1.0601256E0,4.809027E-2,6.0017187E-2,8.094408E-1,-1.9386766E0,-6.211471E-3,-1.7373809E0,5.440978E-1,-8.473642E-2,-8.7176394E-1,5.909211E-1,1.5104145E0,1.153681E0,1.5187434E0,9.004791E-1,1.3607744E0,-2.100114E0,-1.1906251E0,-2.1349301E0,-1.1870344E0,-6.773742E-2,-2.9305439E-3,-7.6264805E-1,-8.430947E-2,-1.5625209E0,4.790328E-1,-4.732307E-1,-8.10688E-2,-8.687595E-2,-6.3720986E-2,-2.3334906E-3,-8.483658E-2,1.5186312E-2,-6.339272E-2,3.9604887E-2,-5.246906E-2,-5.2790225E-2,7.2971224E-3,-8.538669E-3,5.0848287E-2,-1.3129403E-2,-8.259464E-2,-8.346927E-2,-9.9482685E-3,-7.3212283E-3,4.3078337E-2,4.100178E-3,-6.267459E-2,3.1928007E-2,-3.1876724E-2,2.481904E-2,6.1975207E-2,-3.1050576E-2,5.022875E-2,4.600323E-2,6.159568E-2,1.7657867E-2,4.900486E-2,4.4157002E-2,5.970723E-2,-8.419289E-2,-2.9391771E-2,-7.1220905E-2,3.108728E-2,-3.266355E-2,-8.6490475E-2,-8.2812555E-2,-3.4294512E-2,-6.130583E-2,8.836823E-3,4.6090975E-2,-7.56442E-2,3.5798524E-2,-2.7187567E-3,-6.776315E-2,2.3356363E-2],"categories":[],"categories_nodes":[],"categories_segments":[],"categories_sizes":[],"default_left":[0,0,0,0,0,0,0,0,0,0,0,0,0,0,0,0,0,0,0,0,0,0,0,0,0,0,0,0,0,0,0,0,0,0,0,0,0,0,0,0,0,0,0,0,0,0,0,0,0,0,0,0,0,0,0,0,0,0,0,0,0,0,0,0,0,0,0,0,0,0,0,0,0,0,0,0,0,0,0,0,0,0,0,0,0,0,0,0,0,0,0,0,0,0,0,0,0,0,0,0,0,0,0,0,0,0,0,0,0,0,0,0,0,0,0,0,0,0,0,0,0,0,0,0,0,0,0,0,0,0,0,0,0],"id":2,"left_children":[1,3,5,7,9,11,13,15,-1,17,19,21,23,25,27,29,31,33,35,37,39,41,43,45,47,-1,-1,49,-1,51,-1,53,55,57,59,61,63,65,67,69,71,73,75,77,-1,79,81,83,-1,-1,-1,85,-1,87,89,-1,91,93,-1,-1,95,97,-1,99,101,-1,103,105,107,109,111,113,115,117,119,121,123,-1,-1,125,-1,127,129,131,-1,-1,-1,-1,-1,-1,-1,-1,-1,-1,-1,-1,-1,-1,-1,-1,-1,-1,-1,-1,-1,-1,-1,-1,-1,-1,-1,-1,-1,-1,-1,-1,-1,-1,-1,-1,-1,-1,-1,-1,-1,-1,-1,-1,-1,-1,-1,-1,-1],"loss_changes":[1.1943471E4,3.4076343E3,1.141585E3,8.7266846E1,2.3471436E2,1.4807324E2,4.8568024E1,6.205957E1,0E0,1.199389E2,2.4011914E2,2.6316406E1,1.8448895E2,9.417143E-1,6.770859E0,6.4729004E0,2.2049442E2,5.151419E1,7.503035E1,2.5695566E2,6.489697E1,5.7149902E1,6.8603516E-1,1.21474655E2,3.276062E0,0E0,0E0,2.1968994E0,0E0,4.3116455E0,0E0,3.1478516E1,2.5984478E1,1.6186848E1,3.8532257E0,5.138588E0,6.99729E1,1.2285309E1,1.1099579E1,4.9092773E1,2.6799072E1,1.0433838E1,5.709082E1,3.258442E0,0E0,4.3168793E0,9.417386E1,8.870609E0,0E0,0E0,0E0,1.2144775E0,0E0,8.069366E0,2.5246355E1,0E0,1.3402553E1,4.765005E0,0E0,0E0,7.7654915E0,4.777481E0,0E0,8.224842E0,2.3820923E1,0E0,9.926552E0,7.2599525E0,3.5188293E-1,9.0788025E1,1.7819336E1,4.927704E1,5.564636E0,1.6193848E0,2.3476685E1,1.5401917E0,5.547928E1,0E0,0E0,4.56794E0,0E0,2.8869667E1,2.1317347E1,1.19699545E1,0E0,0E0,0E0,0E0,0E0,0E0,0E0,0E0,0E0,0E0,0E0,0E0,0E0,0E0,0E0,0E0,0E0,0E0,0E0,0E0,0E0,0E0,0E0,0E0,0E0,0E0,0E0,0E0,0E0,0E0,0E0,0E0,0E0,0E0,0E0,0E0,0E0,0E0,0E0,0E0,0E0,0E0,0E0,0E0,0E0,0E0,0E0,0E0,0E0],"parents":[2147483647,0,0,1,1,2,2,3,3,4,4,5,5,6,6,7,7,9,9,10,10,11,11,12,12,13,13,14,14,15,15,16,16,17,17,18,18,19,19,20,20,21,21,22,22,23,23,24,24,27,27,29,29,31,31,32,32,33,33,34,34,35,35,36,36,37,37,38,38,39,39,40,40,41,41,42,42,43,43,45,45,46,46,47,47,51,51,53,53,54,54,56,56,57,57,60,60,61,61,63,63,64,64,66,66,67,67,68,68,69,69,70,70,71,71,72,72,73,73,74,74,75,75,76,76,79,79,81,81,82,82,83,83],"right_children":[2,4,6,8,10,12,14,16,-1,18,20,22,24,26,28,30,32,34,36,38,40,42,44,46,48,-1,-1,50,-1,52,-1,54,56,58,60,62,64,66,68,70,72,74,76,78,-1,80,82,84,-1,-1,-1,86,-1,88,90,-1,92,94,-1,-1,96,98,-1,100,102,-1,104,106,108,110,112,114,116,118,120,122,124,-1,-1,126,-1,128,130,132,-1,-1,-1,-1,-1,-1,-1,-1,-1,-1,-1,-1,-1,-1,-1,-1,-1,-1,-1,-1,-1,-1,-1,-1,-1,-1,-1,-1,-1,-1,-1,-1,-1,-1,-1,-1,-1,-1,-1,-1,-1,-1,-1,-1,-1,-1,-1,-1,-1],"split_conditions":[1.1958494E-2,1E0,9.906286E-1,1E0,5.586592E-3,2.6814327E-1,6.863487E-1,5E-1,5.2818436E-2,7.527557E-2,2.2229682E-1,6.950109E-1,7.2639346E-1,1.7494673E-1,2.0072909E-1,9.741841E-1,9.95674E-1,6.660055E-1,8.344767E-1,1.412123E-1,7.300336E-12,7.9719916E-2,2.0951996E-2,9.079594E-1,7.69299E-1,-6.8263024E-2,-2.1298496E-2,9.9996287E-1,-7.5229644E-3,6.3582677E-1,-1.9867055E-2,9.7995716E-1,5.32E-11,1.485221E-3,5.44238E-2,9.7514916E-5,1.4899741E-3,6.25E-2,3.2585862E-1,1.327939E-1,6.3262405E-7,3.763777E-1,9.9996287E-1,4.572172E-14,-8.538137E-2,3.1710932E-1,1.2195122E-2,1.1235955E-2,-8.4193476E-2,1.6760625E-2,6.2330052E-2,7.3647445E-1,-2.4604172E-2,2.3345277E-2,9.8938817E-1,5.8073327E-2,9.9427134E-2,3.268483E-2,4.809027E-2,6.0017187E-2,8.035529E-1,1.0098756E-1,-6.211471E-3,9.96382E-1,1.819818E-1,-8.473642E-2,2.1149752E-1,3.1394246E-1,1.9114052E-1,3.584355E-1,1.3513514E-2,5.263158E-2,2.1276595E-2,6.156446E-1,5E-2,8.277375E-2,1.4492754E-2,-6.773742E-2,-2.9305439E-3,1.6513762E-1,-8.430947E-2,1.2989426E-1,5.7654595E-1,8.904772E-3,-8.10688E-2,-8.687595E-2,-6.3720986E-2,-2.3334906E-3,-8.483658E-2,1.5186312E-2,-6.339272E-2,3.9604887E-2,-5.246906E-2,-5.2790225E-2,7.2971224E-3,-8.538669E-3,5.0848287E-2,-1.3129403E-2,-8.259464E-2,-8.346927E-2,-9.9482685E-3,-7.3212283E-3,4.3078337E-2,4.100178E-3,-6.267459E-2,3.1928007E-2,-3.1876724E-2,2.481904E-2,6.1975207E-2,-3.1050576E-2,5.022875E-2,4.600323E-2,6.159568E-2,1.7657867E-2,4.900486E-2,4.4157002E-2,5.970723E-2,-8.419289E-2,-2.9391771E-2,-7.1220905E-2,3.108728E-2,-3.266355E-2,-8.6490475E-2,-8.2812555E-2,-3.4294512E-2,-6.130583E-2,8.836823E-3,4.6090975E-2,-7.56442E-2,3.5798524E-2,-2.7187567E-3,-6.776315E-2,2.3356363E-2],"split_indices":[1,7,15,21,5,12,7,7,0,12,8,8,8,12,4,8,13,8,8,5,1,12,1,1,8,0,0,1,0,12,0,13,1,1,12,1,5,5,12,12,1,15,1,15,0,8,5,5,0,0,0,15,0,12,13,0,12,15,0,0,8,12,0,8,12,0,15,12,5,8,5,5,5,5,5,12,5,0,0,7,0,8,8,5,0,0,0,0,0,0,0,0,0,0,0,0,0,0,0,0,0,0,0,0,0,0,0,0,0,0,0,0,0,0,0,0,0,0,0,0,0,0,0,0,0,0,0,0,0,0,0,0,0],"split_type":[0,0,0,0,0,0,0,0,0,0,0,0,0,0,0,0,0,0,0,0,0,0,0,0,0,0,0,0,0,0,0,0,0,0,0,0,0,0,0,0,0,0,0,0,0,0,0,0,0,0,0,0,0,0,0,0,0,0,0,0,0,0,0,0,0,0,0,0,0,0,0,0,0,0,0,0,0,0,0,0,0,0,0,0,0,0,0,0,0,0,0,0,0,0,0,0,0,0,0,0,0,0,0,0,0,0,0,0,0,0,0,0,0,0,0,0,0,0,0,0,0,0,0,0,0,0,0,0,0,0,0,0,0],"sum_hessian":[6.7057354E3,4.287458E3,2.418277E3,4.1957233E2,3.867886E3,2.3065432E3,1.1173394E2,4.1090237E2,8.669956E0,1.9960692E2,3.668279E3,1.9839376E3,3.2260556E2,5.746498E0,1.0598744E2,2.3956358E2,1.7133879E2,9.454417E1,1.0506275E2,1.1332878E2,3.5549502E3,8.492556E2,1.134682E3,1.6210066E2,1.6050491E2,2.9424047E0,2.8040934E0,1.0396483E2,2.022613E0,2.3618593E2,3.3776438E0,1.3695471E2,3.4384087E1,1.5847682E1,7.869648E1,2.9060354E1,7.6002396E1,4.8175743E1,6.515304E1,3.0009849E3,5.5396533E2,5.536153E2,2.9564032E2,5.292555E0,1.1293894E3,4.1196865E1,1.2090379E2,1.6294395E1,1.4421053E2,2.8587584E0,1.0110607E2,2.3312253E2,3.0634084E0,1.1144233E2,2.5512384E1,2.5534445E1,8.849643E0,1.2671591E1,3.1760914E0,6.4054596E1,1.4641884E1,2.70215E1,2.0388546E0,1.6261856E1,5.9740543E1,3.497123E1,1.32045145E1,2.202542E1,4.312762E1,4.5483E2,2.5461548E3,3.344185E2,2.1954683E2,5.356693E2,1.7945963E1,9.9014626E1,1.966257E2,3.2085183E0,2.0840368E0,4.411236E0,3.678563E1,2.8838049E1,9.206574E1,7.4221983E0,8.872198E0,2.1400473E2,1.9117802E1,2.089898E0,1.09352425E2,1.0320145E1,1.5192239E1,3.1046228E0,5.7450194E0,1.0496673E1,2.1749187E0,4.653837E0,9.988047E0,2.2827272E0,2.4738771E1,1.2791199E1,3.4706573E0,2.5463085E1,3.427746E1,5.7932453E0,7.411269E0,1.959565E1,2.4297695E0,2.626686E0,4.0500935E1,2.2458624E1,4.3237137E2,1.4139812E2,2.4047568E3,1.396402E2,1.9477829E2,7.792925E1,1.4161757E2,5.332157E2,2.4535906E0,1.3919307E1,4.026655E0,2.7125273E0,9.63021E1,5.1923996E1,1.447017E2,2.2181518E0,2.193084E0,2.8100467E0,2.6028002E1,5.204122E1,4.002452E1,3.2086923E0,4.213506E0],"tree_param":{"num_deleted":"0","num_feature":"50","num_nodes":"133","size_leaf_vector":"1"}},{"base_weights":[4.4604635E-4,-1.7117361E0,1.2629851E0,-1.9302757E0,6.597142E-1,-8.860547E-1,1.4746797E0,-1.9656307E0,9.2987734E-1,-1.5254157E0,1.0443875E0,-1.3063534E0,1.0498716E0,9.157809E-1,1.5072485E0,-1.9785337E0,5.263395E-2,-9.894552E-1,1.3564945E0,-1.8790033E0,1.7259985E-1,1.1655642E0,-8.329109E-1,-1.7648937E0,-6.413275E-1,-4.469896E-2,1.2403725E0,5.7015425E-1,1.2387956E0,1.5251007E0,1.2517213E0,-2.0069435E0,-1.4319532E0,-6.7643136E-2,8.590813E-3,1.9213492E-2,5.7974752E-2,-8.1647664E-2,-2.1299185E-2,-5.909611E-2,5.0151903E-2,3.2789823E-1,1.3197936E0,3.1981405E-2,-1.2267311E0,-1.8972244E0,-4.9816838E-1,1.1195882E-1,-1.3160669E0,6.0704667E-2,7.5012314E-1,-4.7063723E-1,1.1086484E0,1.3441044E0,-0E0,1.3245599E0,1.5361354E0,1.3896749E0,7.4184906E-1,-2.0101283E0,3.3345107E-2,-8.291219E-2,-4.0558043E-1,-5.9428185E-1,8.0257595E-1,1.1513865E0,6.1311167E-2,-6.733436E-2,-1.1012778E-2,-2.0705807E0,-1.589483E0,7.40241E-1,-1.112276E0,3.6180463E-1,-1.5101383E0,-2.7262405E-1,-1.5998355E0,-1.1991934E0,5.1573887E-2,9.5149034E-1,-9.332142E-1,1.8941188E-1,1.4424012E0,-3.9232112E-3,1.3991351E0,4.152942E-2,-4.0033076E-2,1.3514725E0,4.0592462E-1,6.885489E-1,6.1520856E-2,1.4376086E0,5.2452725E-1,1.1592374E0,-4.2771667E-2,-8.097534E-2,-7.0660636E-2,-6.360229E-2,2.1743573E-2,-4.2710856E-2,3.202437E-2,5.0771106E-2,1.4621771E-2,5.2109405E-2,2.3199387E-2,-8.381868E-2,-2.7142432E-2,-8.1665635E-2,-4.0547397E-2,4.752097E-2,-0E0,-6.6853635E-2,2.4475114E-2,-1.4842089E-2,4.119076E-2,-7.0403293E-3,-7.770608E-2,4.5083597E-2,-4.3374218E-2,-6.839932E-2,1.7997354E-2,-6.787634E-2,-8.144152E-3,8.896371E-3,5.1860377E-2,3.9399724E-2,-5.8034785E-2,4.8890725E-2,-4.251964E-2,1.3760194E-2,6.0088422E-2,5.8428425E-2,1.0448817E-2,7.7543603E-3,5.486833E-2,-6.9942647E-3,2.9789096E-2,-2.924209E-2,5.2500185E-2,5.814842E-2,1.40882535E-2,3.231472E-2,-1.0019114E-2,9.728161E-3,4.8924282E-2,4.430507E-2,-3.344989E-2],"categories":[],"categories_nodes":[],"categories_segments":[],"categories_sizes":[],"default_left":[0,0,0,0,0,0,0,0,0,0,0,0,0,0,0,0,0,0,0,0,0,0,0,0,0,0,0,0,0,0,0,0,0,0,0,0,0,0,0,0,0,0,0,0,0,0,0,0,0,0,0,0,0,0,0,0,0,0,0,0,0,0,0,0,0,0,0,0,0,0,0,0,0,0,0,0,0,0,0,0,0,0,0,0,0,0,0,0,0,0,0,0,0,0,0,0,0,0,0,0,0,0,0,0,0,0,0,0,0,0,0,0,0,0,0,0,0,0,0,0,0,0,0,0,0,0,0,0,0,0,0,0,0,0,0,0,0,0,0,0,0,0,0,0,0,0,0],"id":3,"left_children":[1,3,5,7,9,11,13,15,17,19,21,23,25,27,29,31,-1,33,35,37,39,41,43,45,47,-1,49,51,53,55,57,59,61,-1,-1,-1,-1,-1,-1,-1,-1,63,65,-1,67,69,71,73,75,-1,77,79,81,83,85,87,89,91,93,95,-1,-1,97,99,101,103,-1,-1,-1,105,107,109,111,113,115,117,119,121,-1,123,125,127,129,-1,131,-1,-1,133,135,137,-1,139,141,143,145,-1,-1,-1,-1,-1,-1,-1,-1,-1,-1,-1,-1,-1,-1,-1,-1,-1,-1,-1,-1,-1,-1,-1,-1,-1,-1,-1,-1,-1,-1,-1,-1,-1,-1,-1,-1,-1,-1,-1,-1,-1,-1,-1,-1,-1,-1,-1,-1,-1,-1,-1,-1],"loss_changes":[1.4398138E4,1.4664434E3,1.745478E3,2.636963E2,2.026359E2,2.81595E2,6.191162E1,1.10953125E2,2.7787746E1,2.2216362E1,4.7423645E1,8.505557E1,2.6971848E1,2.0873215E1,1.2851074E1,3.6344727E1,0E0,5.9189167E0,1.2958221E0,5.2240524E0,1.4500477E1,2.4226807E1,9.320691E0,2.6825073E1,5.9902733E1,0E0,6.4434967E0,5.448072E1,1.3112198E1,4.486328E0,1.431543E1,2.3679688E1,8.4122314E1,0E0,0E0,0E0,0E0,0E0,0E0,0E0,0E0,1.4202788E1,3.7717285E0,0E0,4.0506973E0,4.3912964E0,1.3966145E1,2.3244118E1,1.7746315E1,0E0,2.5584673E1,2.287615E1,1.9117332E1,7.567993E0,1.0139054E1,3.4333801E0,3.3686523E0,6.2158203E0,1.6341135E1,4.4384766E0,0E0,0E0,5.8418476E1,8.240649E0,3.6897202E0,7.2424164E0,0E0,0E0,0E0,1.5220947E0,1.2952652E1,2.0027938E0,1.2670024E1,2.4746157E1,3.862051E0,1.7744188E1,1.1844276E1,2.1558614E0,0E0,1.7347374E0,2.7075466E1,2.4867838E1,2.3551712E0,0E0,5.6640472E0,0E0,0E0,3.392395E0,1.4311329E0,8.4463625E0,0E0,2.1569824E0,2.619906E0,1.449688E0,1.736345E1,0E0,0E0,0E0,0E0,0E0,0E0,0E0,0E0,0E0,0E0,0E0,0E0,0E0,0E0,0E0,0E0,0E0,0E0,0E0,0E0,0E0,0E0,0E0,0E0,0E0,0E0,0E0,0E0,0E0,0E0,0E0,0E0,0E0,0E0,0E0,0E0,0E0,0E0,0E0,0E0,0E0,0E0,0E0,0E0,0E0,0E0,0E0,0E0,0E0,0E0,0E0,0E0],"parents":[2147483647,0,0,1,1,2,2,3,3,4,4,5,5,6,6,7,7,8,8,9,9,10,10,11,11,12,12,13,13,14,14,15,15,17,17,18,18,19,19,20,20,21,21,22,22,23,23,24,24,26,26,27,27,28,28,29,29,30,30,31,31,32,32,41,41,42,42,44,44,45,45,46,46,47,47,48,48,50,50,51,51,52,52,53,53,54,54,55,55,56,56,57,57,58,58,59,59,62,62,63,63,64,64,65,65,69,69,70,70,71,71,72,72,73,73,74,74,75,75,76,76,77,77,79,79,80,80,81,81,82,82,84,84,87,87,88,88,89,89,91,91,92,92,93,93,94,94],"right_children":[2,4,6,8,10,12,14,16,18,20,22,24,26,28,30,32,-1,34,36,38,40,42,44,46,48,-1,50,52,54,56,58,60,62,-1,-1,-1,-1,-1,-1,-1,-1,64,66,-1,68,70,72,74,76,-1,78,80,82,84,86,88,90,92,94,96,-1,-1,98,100,102,104,-1,-1,-1,106,108,110,112,114,116,118,120,122,-1,124,126,128,130,-1,132,-1,-1,134,136,138,-1,140,142,144,146,-1,-1,-1,-1,-1,-1,-1,-1,-1,-1,-1,-1,-1,-1,-1,-1,-1,-1,-1,-1,-1,-1,-1,-1,-1,-1,-1,-1,-1,-1,-1,-1,-1,-1,-1,-1,-1,-1,-1,-1,-1,-1,-1,-1,-1,-1,-1,-1,-1,-1,-1,-1],"split_conditions":[9.8853326E-1,7.368421E-1,1.4020935E-1,9.9895936E-1,2.3546705E-1,2.985527E-3,2.4671997E-1,1E0,6.863487E-1,1.9876854E-1,7.08956E-10,6.953559E-2,6.863487E-1,5.7258874E-1,3.0708647E-1,6.666667E-1,5.263395E-2,7.692308E-2,2.5786528E-1,3.0713072E-1,6.863487E-1,2.8542957E-1,2.9248512E-1,7.1428575E-2,9.65E-16,-4.469896E-2,9.905799E-1,5.9254515E-1,9.4961786E-1,2.800864E-1,1.0003118E-11,1E0,2.8542957E-1,-6.7643136E-2,8.590813E-3,1.9213492E-2,5.7974752E-2,-8.1647664E-2,-2.1299185E-2,-5.909611E-2,5.0151903E-2,8.333333E-1,8.4326756E-1,3.1981405E-2,3.268483E-2,5.4310715E-1,5.41E-13,8.805302E-1,3.065758E-18,6.0704667E-2,9.948637E-1,3.3375815E-1,6.3502945E-2,6.863487E-1,9.9989E-1,9.440388E-1,1.6666667E-1,9.3606925E-1,2.0524758E-1,3.0713072E-1,3.3345107E-2,-8.291219E-2,9.990016E-1,2.8051814E-1,1.0823951E-1,2.9966915E-2,6.1311167E-2,-6.733436E-2,-1.1012778E-2,6.0606062E-2,3.913261E-1,1.2989426E-1,1.12E-9,4.790968E-1,4.646426E-1,4.6666667E-1,1.7203055E-1,4.827276E-1,5.1573887E-2,2.9287618E-1,2.5641026E-2,4.971671E-1,1.5838659E-1,-3.9232112E-3,8.8905346E-1,4.152942E-2,-4.0033076E-2,3.652835E-1,4.827276E-1,2.956702E-1,6.1520856E-2,9.999928E-1,5.1843584E-1,1.48E-11,3.2457048E-1,-8.097534E-2,-7.0660636E-2,-6.360229E-2,2.1743573E-2,-4.2710856E-2,3.202437E-2,5.0771106E-2,1.4621771E-2,5.2109405E-2,2.3199387E-2,-8.381868E-2,-2.7142432E-2,-8.1665635E-2,-4.0547397E-2,4.752097E-2,-0E0,-6.6853635E-2,2.4475114E-2,-1.4842089E-2,4.119076E-2,-7.0403293E-3,-7.770608E-2,4.5083597E-2,-4.3374218E-2,-6.839932E-2,1.7997354E-2,-6.787634E-2,-8.144152E-3,8.896371E-3,5.1860377E-2,3.9399724E-2,-5.8034785E-2,4.8890725E-2,-4.251964E-2,1.3760194E-2,6.0088422E-2,5.8428425E-2,1.0448817E-2,7.7543603E-3,5.486833E-2,-6.9942647E-3,2.9789096E-2,-2.924209E-2,5.2500185E-2,5.814842E-2,1.40882535E-2,3.231472E-2,-1.0019114E-2,9.728161E-3,4.8924282E-2,4.430507E-2,-3.344989E-2],"split_indices":[0,3,2,15,2,1,2,21,7,5,0,2,7,8,2,3,0,5,2,15,7,2,8,5,1,0,0,3,8,2,1,5,2,0,0,0,0,0,0,0,0,3,15,0,15,3,1,8,15,0,0,8,15,7,0,8,3,2,15,15,0,0,1,15,15,15,0,0,0,5,8,8,1,8,3,3,4,3,0,3,5,8,2,0,15,0,0,3,3,2,0,15,15,1,8,0,0,0,0,0,0,0,0,0,0,0,0,0,0,0,0,0,0,0,0,0,0,0,0,0,0,0,0,0,0,0,0,0,0,0,0,0,0,0,0,0,0,0,0,0,0,0,0,0,0,0,0],"split_type":[0,0,0,0,0,0,0,0,0,0,0,0,0,0,0,0,0,0,0,0,0,0,0,0,0,0,0,0,0,0,0,0,0,0,0,0,0,0,0,0,0,0,0,0,0,0,0,0,0,0,0,0,0,0,0,0,0,0,0,0,0,0,0,0,0,0,0,0,0,0,0,0,0,0,0,0,0,0,0,0,0,0,0,0,0,0,0,0,0,0,0,0,0,0,0,0,0,0,0,0,0,0,0,0,0,0,0,0,0,0,0,0,0,0,0,0,0,0,0,0,0,0,0,0,0,0,0,0,0,0,0,0,0,0,0,0,0,0,0,0,0,0,0,0,0,0,0],"sum_hessian":[6.6585923E3,2.825873E3,3.8327195E3,2.587639E3,2.382341E2,3.4336417E2,3.4893555E3,2.5563865E3,3.1252316E1,3.5178394E1,2.0305571E2,2.824252E2,6.0938984E1,1.9391156E2,3.2954438E3,2.5467998E3,9.5867405E0,5.400771E0,2.5851543E1,2.9076029E1,6.102366E0,1.9114969E2,1.1906023E1,1.6609631E2,1.1632888E2,4.48798E0,5.6451004E1,9.516232E1,9.874924E1,3.0752354E3,2.2020839E2,2.4182512E3,1.2854846E2,3.209538E0,2.1912332E0,3.1723998E0,2.2679144E1,2.5423603E1,3.6524253E0,2.234058E0,3.868308E0,3.0308664E1,1.6084102E2,2.0644457E0,9.841577E0,1.4986383E2,1.6232485E1,5.528924E1,6.103964E1,3.4590134E1,2.186087E1,3.2427452E1,6.2734875E1,9.098899E1,7.760249E0,1.671748E2,2.9080605E3,1.7180283E2,4.8405563E1,2.41587E3,2.3811955E0,7.844907E1,5.0099392E1,1.0142223E1,2.0166441E1,9.365988E1,6.718114E1,6.0590935E0,3.7824833E0,9.199059E1,5.7873238E1,5.2589846E0,1.09735E1,4.863653E1,6.6527095E0,1.354534E1,4.74943E1,4.431488E0,1.7429382E1,7.6464396E0,2.4781013E1,1.7207731E1,4.552714E1,3.2487864E0,8.7740204E1,3.7543588E0,4.0058904E0,1.618531E2,5.3217115E0,7.3867383E0,2.9006738E3,1.620473E2,9.755532E0,3.1368643E1,1.703692E1,2.275025E3,1.4084514E2,2.2033611E1,2.806578E1,7.80056E0,2.341663E0,8.7206335E0,1.1445807E1,7.289666E1,2.0763226E1,8.9807846E1,2.1827497E0,3.0893785E1,2.6979452E1,2.848973E0,2.4100115E0,8.3534775E0,2.6200228E0,2.33323E1,2.5304232E1,2.0297868E0,4.622923E0,4.7841196E0,8.761221E0,4.5275887E1,2.2184136E0,2.4178753E0,2.0136127E0,3.0775495E0,4.56889E0,5.033407E0,1.9747606E1,9.4873905E0,7.7203403E0,2.7860048E0,4.274114E1,8.28836E1,4.856605E0,3.0473514E0,1.5880574E2,2.030219E0,3.2914925E0,2.154039E0,5.2326994E0,1.5925331E2,2.7939832E0,7.2072124E0,2.5483196E0,2.4600165E0,2.8908625E1,6.741296E0,1.0295625E1],"tree_param":{"num_deleted":"0","num_feature":"50","num_nodes":"147","size_leaf_vector":"1"}},{"base_weights":[9.389725E-3,1.1986943E0,-1.638848E0,-7.7664006E-1,1.4362917E0,-1.8541545E0,7.2279614E-1,5.8018804E-1,-1.4553088E0,3.7815824E-1,1.4569474E0,-1.892051E0,9.468726E-1,-1.5041044E0,1.0522848E0,1.0130218E0,-8.148235E-2,-1.5635291E0,5.5574834E-1,-8.0342543E-1,9.11205E-1,1.0410064E0,1.4794545E0,-1.923817E0,-1.2858306E0,-1.169189E0,1.3951458E0,-1.8401297E0,2.894673E-1,1.1459513E0,-2.2411211E-1,5.43067E-1,1.4124314E0,-7.5781745E-1,5.34342E-1,-1.6260506E0,5.605214E-1,-4.9036855E-1,5.512592E-2,7.593495E-1,-1.402891E0,1.1774662E0,-6.6211355E-1,7.030319E-1,1.3450526E0,1.4966011E0,1.1890408E0,-1.1032528E0,-1.9284279E0,-7.9770334E-2,-1.5991928E-1,-6.258629E-2,-1.815324E-2,5.946771E-2,5.0441506E-3,-2.612796E-2,-7.671316E-2,-1.5278527E-2,4.0377878E-2,4.2802197E-1,1.2936478E0,-1.3577458E0,5.400292E-2,-3.191094E-1,9.800129E-1,5.9775103E-2,7.6556983E-3,-1.3771999E0,2.4743623E-1,-5.6772494E-1,8.680592E-1,-1.7151383E0,-5.574149E-1,-2.4768202E-2,4.4337567E-2,-4.9128283E-2,2.2986421E-2,4.8817333E-2,-5.667436E-3,-1.6519076E0,4.734444E-3,1.3203818E0,-1.5248244E-2,3.0848905E-2,-5.950983E-2,-3.0498162E-1,1.1063858E0,1.3764836E0,5.277375E-1,6.8478185E-1,1.4998549E0,7.294562E-1,1.2821275E0,3.3873893E-2,-6.589145E-2,-1.9590237E0,-1.7829019E0,4.7504744E-1,-1.7081013E0,5.2476235E-2,2.4855837E-2,6.0078986E-2,1.1277579E0,-7.4116826E-2,5.7311347E-3,4.6694595E-2,-2.9734498E-2,4.701429E-2,1.1544552E-2,-1.3155096E-2,-6.787592E-2,3.3323582E-2,-4.121705E-2,-3.4289546E-2,3.2489188E-3,4.744922E-2,1.1028098E-2,-3.45587E-2,-7.170313E-2,-4.6057243E-2,4.229929E-3,-2.3035066E-2,-7.196171E-2,5.5254605E-2,1.5792113E-2,-3.3376183E-2,4.882759E-2,5.9442323E-2,1.900606E-2,2.6504193E-2,5.6551956E-2,4.1540954E-2,-5.164545E-3,-4.8570074E-2,5.6208722E-2,5.5541143E-2,6.0620602E-2,4.971825E-2,1.0864279E-2,4.5282755E-2,5.820607E-2,-6.297818E-2,-7.861966E-2,-7.900447E-2,-5.660808E-2,-5.6468174E-2,3.0345088E-2,-7.766289E-2,-2.3227217E-2,-2.5448153E-2,4.327574E-2,-3.337147E-2,4.7647055E-2],"categories":[],"categories_nodes":[],"categories_segments":[],"categories_sizes":[],"default_left":[0,0,0,0,0,0,0,0,0,0,0,0,0,0,0,0,0,0,0,0,0,0,0,0,0,0,0,0,0,0,0,0,0,0,0,0,0,0,0,0,0,0,0,0,0,0,0,0,0,0,0,0,0,0,0,0,0,0,0,0,0,0,0,0,0,0,0,0,0,0,0,0,0,0,0,0,0,0,0,0,0,0,0,0,0,0,0,0,0,0,0,0,0,0,0,0,0,0,0,0,0,0,0,0,0,0,0,0,0,0,0,0,0,0,0,0,0,0,0,0,0,0,0,0,0,0,0,0,0,0,0,0,0,0,0,0,0,0,0,0,0,0,0,0,0,0,0,0,0,0,0,0,0],"id":4,"left_children":[1,3,5,7,9,11,13,15,17,19,21,23,25,27,29,31,33,35,37,39,41,43,45,47,49,51,53,55,57,59,61,63,65,67,69,71,73,75,-1,77,79,81,83,85,87,89,91,93,95,-1,97,-1,-1,-1,-1,-1,-1,-1,-1,99,101,103,-1,105,107,-1,-1,109,111,113,115,117,119,-1,-1,-1,-1,-1,-1,121,-1,123,-1,-1,-1,125,127,129,131,133,135,137,139,-1,-1,141,143,145,147,-1,149,-1,151,-1,-1,-1,-1,-1,-1,-1,-1,-1,-1,-1,-1,-1,-1,-1,-1,-1,-1,-1,-1,-1,-1,-1,-1,-1,-1,-1,-1,-1,-1,-1,-1,-1,-1,-1,-1,-1,-1,-1,-1,-1,-1,-1,-1,-1,-1,-1,-1,-1,-1],"loss_changes":[1.3017102E4,1.8115469E3,1.4166602E3,3.8285223E2,7.45293E1,2.7267285E2,1.7266135E2,3.9970516E1,6.121216E1,4.3179848E1,2.9823242E1,4.5683594E1,3.4554466E1,1.9028702E1,2.4713226E1,1.4836014E1,2.3661585E1,3.5940857E1,1.3519258E1,2.1196072E1,2.0502483E1,1.7034409E1,1.3893066E1,6.6103516E0,1.0197058E2,9.4623184E-1,3.033863E0,8.707428E-1,3.164607E0,1.9430817E1,2.8059242E1,1.5601701E1,4.023979E0,1.7312763E1,1.1448573E1,2.3165588E1,6.046884E0,6.4363065E0,0E0,2.9982579E0,6.3639374E0,9.635803E0,9.955453E0,3.5407146E1,1.4441681E0,6.7280273E0,6.720764E0,1.8250193E1,6.708008E0,0E0,5.0847404E1,0E0,0E0,0E0,0E0,0E0,0E0,0E0,0E0,1.1965555E1,3.4707031E0,7.1845207E0,0E0,9.823597E0,3.1799545E0,0E0,0E0,4.926056E0,9.15252E0,1.5450084E0,3.9120178E0,1.37091675E1,8.596828E0,0E0,0E0,0E0,0E0,0E0,0E0,9.063072E-1,0E0,1.3908997E0,0E0,0E0,0E0,2.142122E1,1.3896851E1,1.1934814E0,1.9506077E0,2.0896833E1,2.8442383E0,7.371622E0,2.0203247E0,0E0,0E0,1.4052734E0,2.6851685E1,2.0664658E1,2.576767E0,0E0,1.7836655E1,0E0,1.24410095E1,0E0,0E0,0E0,0E0,0E0,0E0,0E0,0E0,0E0,0E0,0E0,0E0,0E0,0E0,0E0,0E0,0E0,0E0,0E0,0E0,0E0,0E0,0E0,0E0,0E0,0E0,0E0,0E0,0E0,0E0,0E0,0E0,0E0,0E0,0E0,0E0,0E0,0E0,0E0,0E0,0E0,0E0,0E0,0E0,0E0,0E0,0E0,0E0,0E0,0E0],"parents":[2147483647,0,0,1,1,2,2,3,3,4,4,5,5,6,6,7,7,8,8,9,9,10,10,11,11,12,12,13,13,14,14,15,15,16,16,17,17,18,18,19,19,20,20,21,21,22,22,23,23,24,24,25,25,26,26,27,27,28,28,29,29,30,30,31,31,32,32,33,33,34,34,35,35,36,36,37,37,39,39,40,40,41,41,42,42,43,43,44,44,45,45,46,46,47,47,48,48,50,50,59,59,60,60,61,61,63,63,64,64,67,67,68,68,69,69,70,70,71,71,72,72,79,79,81,81,85,85,86,86,87,87,88,88,89,89,90,90,91,91,92,92,95,95,96,96,97,97,98,98,100,100,102,102],"right_children":[2,4,6,8,10,12,14,16,18,20,22,24,26,28,30,32,34,36,38,40,42,44,46,48,50,52,54,56,58,60,62,64,66,68,70,72,74,76,-1,78,80,82,84,86,88,90,92,94,96,-1,98,-1,-1,-1,-1,-1,-1,-1,-1,100,102,104,-1,106,108,-1,-1,110,112,114,116,118,120,-1,-1,-1,-1,-1,-1,122,-1,124,-1,-1,-1,126,128,130,132,134,136,138,140,-1,-1,142,144,146,148,-1,150,-1,152,-1,-1,-1,-1,-1,-1,-1,-1,-1,-1,-1,-1,-1,-1,-1,-1,-1,-1,-1,-1,-1,-1,-1,-1,-1,-1,-1,-1,-1,-1,-1,-1,-1,-1,-1,-1,-1,-1,-1,-1,-1,-1,-1,-1,-1,-1,-1,-1,-1,-1],"split_conditions":[2.5892934E-1,1.6899075E-1,7.368421E-1,6.938319E-2,7.982121E-1,9.9233085E-1,2.3546705E-1,3.113798E-2,1.9624153E-1,4.1399005E-1,2.5468695E-1,6.666667E-1,6.863487E-1,5.406888E-1,3.0708647E-1,6.486107E-1,7.754743E-2,2.5225E-1,2.6296403E-3,1.606759E-2,9.259633E-1,5.7258874E-1,3.0708647E-1,5.8615E-3,2.8542957E-1,2.0882353E-1,1.2659976E-1,2.747308E-1,9.602381E-1,2.8542957E-1,3.4324743E-2,5.1274794E-1,9.390875E-1,5.305119E-1,5.227892E-1,1.4020935E-1,3.5520187E-1,5.328918E-1,5.512592E-2,1.4545691E-1,3.6953643E-1,9.766921E-1,1.8500146E-2,5.9254515E-1,9.4961786E-1,2.3269297E-1,4.1399005E-1,6.514332E-1,2.4255821E-1,-7.9770334E-2,8.0678785E-1,-6.258629E-2,-1.815324E-2,5.946771E-2,5.0441506E-3,-2.612796E-2,-7.671316E-2,-1.5278527E-2,4.0377878E-2,7.517354E-1,7.816293E-1,8.0701756E-1,5.400292E-2,2.3910181E-1,1.0465906E-1,5.9775103E-2,7.6556983E-3,4.646426E-1,6.0228348E-2,8.148148E-1,5.0757575E-1,1.2989426E-1,5.6989247E-1,-2.4768202E-2,4.4337567E-2,-4.9128283E-2,2.2986421E-2,4.8817333E-2,-5.667436E-3,5.2381594E-2,4.734444E-3,6.516129E-1,-1.5248244E-2,3.0848905E-2,-5.950983E-2,2.0501345E-1,1.173095E-1,1.7640361E-1,3.065758E-18,2.5429878E-1,1.327939E-1,3.8417566E-1,5.247682E-1,3.3873893E-2,-6.589145E-2,3.2817325E-1,1E0,6.863487E-1,3.949296E-1,5.2476235E-2,6.465422E-1,6.0078986E-2,8.144143E-1,-7.4116826E-2,5.7311347E-3,4.6694595E-2,-2.9734498E-2,4.701429E-2,1.1544552E-2,-1.3155096E-2,-6.787592E-2,3.3323582E-2,-4.121705E-2,-3.4289546E-2,3.2489188E-3,4.744922E-2,1.1028098E-2,-3.45587E-2,-7.170313E-2,-4.6057243E-2,4.229929E-3,-2.3035066E-2,-7.196171E-2,5.5254605E-2,1.5792113E-2,-3.3376183E-2,4.882759E-2,5.9442323E-2,1.900606E-2,2.6504193E-2,5.6551956E-2,4.1540954E-2,-5.164545E-3,-4.8570074E-2,5.6208722E-2,5.5541143E-2,6.0620602E-2,4.971825E-2,1.0864279E-2,4.5282755E-2,5.820607E-2,-6.297818E-2,-7.861966E-2,-7.900447E-2,-5.660808E-2,-5.6468174E-2,3.0345088E-2,-7.766289E-2,-2.3227217E-2,-2.5448153E-2,4.327574E-2,-3.337147E-2,4.7647055E-2],"split_indices":[11,2,3,12,7,15,2,12,4,2,2,3,7,15,2,8,2,11,15,15,15,8,2,12,2,2,4,8,15,2,15,3,8,3,8,2,8,3,0,12,12,2,11,3,8,3,2,11,12,0,8,0,0,0,0,0,0,0,0,11,11,3,0,11,2,0,0,3,2,3,3,8,3,0,0,0,0,0,0,12,0,12,0,0,0,12,11,2,15,12,12,8,8,0,0,11,7,7,12,0,8,0,11,0,0,0,0,0,0,0,0,0,0,0,0,0,0,0,0,0,0,0,0,0,0,0,0,0,0,0,0,0,0,0,0,0,0,0,0,0,0,0,0,0,0,0,0,0,0,0,0,0,0],"split_type":[0,0,0,0,0,0,0,0,0,0,0,0,0,0,0,0,0,0,0,0,0,0,0,0,0,0,0,0,0,0,0,0,0,0,0,0,0,0,0,0,0,0,0,0,0,0,0,0,0,0,0,0,0,0,0,0,0,0,0,0,0,0,0,0,0,0,0,0,0,0,0,0,0,0,0,0,0,0,0,0,0,0,0,0,0,0,0,0,0,0,0,0,0,0,0,0,0,0,0,0,0,0,0,0,0,0,0,0,0,0,0,0,0,0,0,0,0,0,0,0,0,0,0,0,0,0,0,0,0,0,0,0,0,0,0,0,0,0,0,0,0,0,0,0,0,0,0,0,0,0,0,0,0],"sum_hessian":[6.638529E3,3.856303E3,2.7822258E3,4.1375363E2,3.4425493E3,2.5500042E3,2.3222176E2,1.3795164E2,2.7580197E2,6.637747E1,3.3761719E3,2.5163198E3,3.368438E1,2.9432072E1,2.0278969E2,8.316749E1,5.4784153E1,2.6197656E2,1.3825402E1,2.0419512E1,4.595796E1,1.7596428E2,3.2002078E3,2.3888074E3,1.2751234E2,5.568261E0,2.8116117E1,2.481313E1,4.618941E0,1.8909386E2,1.3695825E1,3.9408527E1,4.3758965E1,2.6076828E1,2.8707323E1,2.5475928E2,7.2173038E0,6.2092233E0,7.6161785E0,5.5409703E0,1.4878542E1,3.957554E1,6.3824177E0,8.505698E1,9.0907295E1,3.0175483E3,1.8265933E2,1.4811887E1,2.3739956E3,7.7738754E1,4.9773582E1,2.7313006E0,2.8369608E0,2.5990864E1,2.1252542E0,2.1815562E0,2.2631575E1,2.5611138E0,2.0578268E0,3.304454E1,1.5604932E2,8.078902E0,5.616923E0,1.3268367E1,2.6140162E1,4.0720383E1,3.038579E0,1.5967812E1,1.0109017E1,6.43977E0,2.2267553E1,2.3451056E2,2.0248713E1,2.1898036E0,5.0275E0,3.6330037E0,2.5762193E0,3.5042543E0,2.036716E0,1.276832E1,2.1102211E0,3.6450417E1,3.1251225E0,2.3125331E0,4.0698843E0,2.4307232E1,6.074975E1,8.676415E1,4.1431427E0,1.3012855E1,3.0045354E3,3.243465E1,1.5022469E2,3.0693426E0,1.1742544E1,1.9507223E3,4.2327325E2,3.5742733E1,1.403085E1,9.567383E0,2.3477158E1,6.533889E1,9.071043E1,5.9486704E0,2.1302314E0,2.504823E0,1.0763544E1,1.9723097E1,6.417064E0,4.278778E0,1.16890335E1,7.224359E0,2.8846586E0,4.3377204E0,2.1020496E0,1.372441E1,8.543142E0,2.0678104E1,2.1383246E2,1.0372372E1,9.876341E0,2.2087605E0,1.055956E1,3.3633915E1,2.8165042E0,1.8430353E1,5.876879E0,3.6989075E1,2.3760674E1,5.3748407E0,8.138931E1,2.08948E0,2.0536628E0,3.3522499E0,9.6606045E0,3.823705E2,2.622165E3,1.4376984E1,1.8057667E1,8.4800545E1,6.542413E1,3.6564262E1,1.9141581E3,2.7491946E2,1.4835379E2,4.1043468E0,3.1638386E1,1.0952024E1,3.0788264E0,1.4630763E1,8.8463955E0,2.4102416E0,8.8300186E1],"tree_param":{"num_deleted":"0","num_feature":"50","num_nodes":"153","size_leaf_vector":"1"}},{"base_weights":[1.0766032E-2,-1.5719804E0,1.203234E0,-1.7656552E0,5.9774965E-1,-6.8009406E-1,1.4213506E0,5.2354474E-2,-1.780048E0,-1.2894043E0,9.531966E-1,5.521932E-1,-1.3018584E0,9.7292686E-1,1.4434615E0,-1.8250203E0,-1.2429372E0,-1.6799376E0,2.0160839E-1,1.0741297E0,-1.017416E0,5.8818765E-2,1.731946E-1,-1.4115999E0,5.664701E-1,1.3396393E0,7.3776484E-1,1.4613924E0,1.183462E0,-1.8290758E0,3.8686372E-2,-7.4564494E-2,-3.3347192E-1,-1.8223169E0,-2.008623E-2,5.1323898E-2,-6.045819E-2,1.712698E-1,1.2219144E0,-5.9077203E-2,-4.3318295E-1,7.7540284E-1,-5.3274196E-1,-1.49909E0,4.5064345E-1,5.376855E-2,-2.9525974E-1,1.3776628E0,1.4837194E-2,6.1331116E-2,1.1339784E0,1.339017E0,5.9251044E-2,1.2598971E0,7.7273554E-1,-1.6245449E0,-1.8785565E0,5.080469E-1,-7.583135E-2,-3.088919E-2,-7.683335E-2,-4.968298E-1,8.0085397E-1,5.8939632E-2,1.0184772E0,1.1894004E-2,-4.7274932E-2,-5.215362E-1,9.0383124E-1,-1.468016E0,4.167101E-1,-1.5608915E0,4.4159632E-2,-6.100796E-2,4.5256715E-2,-3.7031934E-2,1.8980073E-2,1.604905E-2,1.4060855E0,6.657497E-1,-4.730628E-1,1.3405915E0,5.848614E-1,-3.0126581E-2,1.3514495E0,8.3605677E-1,1.3488042E0,1.8435107E-1,5.7106182E-2,-7.50949E-2,-5.2370536E-3,-7.700279E-2,-7.131732E-2,3.9493833E-2,-3.309591E-2,5.516047E-3,-3.9519683E-2,1.2191143E-2,5.3476695E-2,9.61887E-3,5.0573774E-2,5.7998304E-3,-4.253085E-2,4.6382926E-2,1.4305847E-2,-7.003E-2,-6.141114E-3,3.786528E-2,-1.4084508E-2,-7.652727E-2,-4.7089417E-2,1.923346E-2,-2.0936185E-2,5.949213E-2,3.5273813E-2,4.39726E-2,-9.840539E-3,-5.043657E-2,4.8231706E-2,-4.285942E-3,5.689531E-2,6.040325E-3,5.183667E-2,1.2927224E-2,5.4434646E-2,-1.0022668E-2,3.7455045E-2,5.5918712E-2,2.7259925E-2,-5.2309494E-2,3.0978732E-2],"categories":[],"categories_nodes":[],"categories_segments":[],"categories_sizes":[],"default_left":[0,0,0,0,0,0,0,0,0,0,0,0,0,0,0,0,0,0,0,0,0,0,0,0,0,0,0,0,0,0,0,0,0,0,0,0,0,0,0,0,0,0,0,0,0,0,0,0,0,0,0,0,0,0,0,0,0,0,0,0,0,0,0,0,0,0,0,0,0,0,0,0,0,0,0,0,0,0,0,0,0,0,0,0,0,0,0,0,0,0,0,0,0,0,0,0,0,0,0,0,0,0,0,0,0,0,0,0,0,0,0,0,0,0,0,0,0,0,0,0,0,0,0,0,0,0,0,0,0,0,0],"id":5,"left_children":[1,3,5,7,9,11,13,-1,15,17,19,21,23,25,27,29,31,33,35,37,39,-1,41,43,45,47,49,51,53,55,-1,-1,57,59,-1,-1,-1,61,63,-1,65,67,69,71,73,-1,75,77,-1,79,81,83,-1,85,87,89,91,93,-1,-1,-1,95,97,-1,99,-1,-1,101,103,105,107,109,-1,111,-1,-1,-1,-1,113,115,117,119,121,-1,123,125,127,129,-1,-1,-1,-1,-1,-1,-1,-1,-1,-1,-1,-1,-1,-1,-1,-1,-1,-1,-1,-1,-1,-1,-1,-1,-1,-1,-1,-1,-1,-1,-1,-1,-1,-1,-1,-1,-1,-1,-1,-1,-1,-1,-1],"loss_changes":[1.2444603E4,1.1917231E3,1.5457886E3,1.1748584E2,1.574032E2,3.0033087E2,3.1773438E1,0E0,5.997754E1,2.2200348E1,4.79467E1,4.543416E1,5.423169E1,1.2745377E1,1.2970215E1,2.888623E1,1.1405707E2,3.8347015E0,1.7811739E1,2.4436005E1,2.3457165E0,0E0,4.0599194E1,4.087558E1,1.0620651E1,1.5894623E0,2.6851124E1,5.029297E0,5.500824E0,2.072705E1,0E0,0E0,1.1130315E2,9.423065E-1,0E0,0E0,0E0,1.1947582E1,6.406372E0,0E0,4.115342E0,9.081821E0,3.979461E1,3.9627686E1,4.272441E0,0E0,4.329126E0,8.917694E-1,0E0,1.2743034E1,6.224823E0,1.2267029E1,0E0,5.3440247E0,1.3511478E1,1.7787476E2,4.70459E0,3.618102E1,0E0,0E0,0E0,4.5318213E0,3.3001175E0,0E0,1.7061691E1,0E0,0E0,2.124011E0,6.0355034E0,7.8817215E0,9.585551E0,2.8569092E1,0E0,2.1548684E0,0E0,0E0,0E0,0E0,8.701477E-1,7.6812143E0,2.915261E1,5.6378555E0,5.6011167E0,0E0,3.536377E0,3.9670143E0,3.5941162E0,1.8815044E1,0E0,0E0,0E0,0E0,0E0,0E0,0E0,0E0,0E0,0E0,0E0,0E0,0E0,0E0,0E0,0E0,0E0,0E0,0E0,0E0,0E0,0E0,0E0,0E0,0E0,0E0,0E0,0E0,0E0,0E0,0E0,0E0,0E0,0E0,0E0,0E0,0E0,0E0,0E0,0E0,0E0,0E0,0E0],"parents":[2147483647,0,0,1,1,2,2,3,3,4,4,5,5,6,6,8,8,9,9,10,10,11,11,12,12,13,13,14,14,15,15,16,16,17,17,18,18,19,19,20,20,22,22,23,23,24,24,25,25,26,26,27,27,28,28,29,29,32,32,33,33,37,37,38,38,40,40,41,41,42,42,43,43,44,44,46,46,47,47,49,49,50,50,51,51,53,53,54,54,55,55,56,56,57,57,61,61,62,62,64,64,67,67,68,68,69,69,70,70,71,71,73,73,78,78,79,79,80,80,81,81,82,82,84,84,85,85,86,86,87,87],"right_children":[2,4,6,8,10,12,14,-1,16,18,20,22,24,26,28,30,32,34,36,38,40,-1,42,44,46,48,50,52,54,56,-1,-1,58,60,-1,-1,-1,62,64,-1,66,68,70,72,74,-1,76,78,-1,80,82,84,-1,86,88,90,92,94,-1,-1,-1,96,98,-1,100,-1,-1,102,104,106,108,110,-1,112,-1,-1,-1,-1,114,116,118,120,122,-1,124,126,128,130,-1,-1,-1,-1,-1,-1,-1,-1,-1,-1,-1,-1,-1,-1,-1,-1,-1,-1,-1,-1,-1,-1,-1,-1,-1,-1,-1,-1,-1,-1,-1,-1,-1,-1,-1,-1,-1,-1,-1,-1,-1,-1,-1],"split_conditions":[9.8853326E-1,7.368421E-1,1.6518223E-1,1.6563619E-2,2.4284822E-1,6.2794685E-2,2.4671997E-1,5.2354474E-2,6.511628E-1,1.1111111E-1,7.08956E-10,9.905799E-1,1.9624153E-1,5.44238E-2,3.0708647E-1,1E0,2.8784245E-1,8.888889E-1,1.9829415E-2,2.8542957E-1,7.9844964E-1,5.8818765E-2,3.0267643E-2,1.9114052E-1,2.3446013E-1,4.062578E-1,5.976401E-1,1.3907735E-1,4.062578E-1,7.6380366E-1,3.8686372E-2,-7.4564494E-2,1.9829415E-2,2.9482456E-2,-2.008623E-2,5.1323898E-2,-6.045819E-2,8.6E-1,7.816293E-1,-5.9077203E-2,7.817466E-1,2.7313141E-2,7.754743E-2,2.5225E-1,3.1969792E-1,5.376855E-2,5.328918E-1,2.9287618E-1,1.4837194E-2,2.4544474E-2,2.3446013E-1,2.9287618E-1,5.9251044E-2,4.1399005E-1,3.3657587E-1,1E0,9.999666E-1,3.0691335E-1,-7.583135E-2,-3.088919E-2,-7.683335E-2,2.6822954E-2,9.4608974E-1,5.8939632E-2,9.925782E-1,1.1894004E-2,-4.7274932E-2,1.6903488E-2,7.246377E-3,5.549872E-1,5.408163E-1,5.413254E-2,4.4159632E-2,2.3073286E-1,4.5256715E-2,-3.7031934E-2,1.8980073E-2,1.604905E-2,6.4285713E-1,1.17473215E-1,2.0501345E-1,7.458667E-3,1E0,-3.0126581E-2,2.5844595E-3,7.220698E-4,9.766921E-1,5E-1,5.7106182E-2,-7.50949E-2,-5.2370536E-3,-7.700279E-2,-7.131732E-2,3.9493833E-2,-3.309591E-2,5.516047E-3,-3.9519683E-2,1.2191143E-2,5.3476695E-2,9.61887E-3,5.0573774E-2,5.7998304E-3,-4.253085E-2,4.6382926E-2,1.4305847E-2,-7.003E-2,-6.141114E-3,3.786528E-2,-1.4084508E-2,-7.652727E-2,-4.7089417E-2,1.923346E-2,-2.0936185E-2,5.949213E-2,3.5273813E-2,4.39726E-2,-9.840539E-3,-5.043657E-2,4.8231706E-2,-4.285942E-3,5.689531E-2,6.040325E-3,5.183667E-2,1.2927224E-2,5.4434646E-2,-1.0022668E-2,3.7455045E-2,5.5918712E-2,2.7259925E-2,-5.2309494E-2,3.0978732E-2],"split_indices":[0,3,2,11,2,12,2,0,3,5,0,0,4,12,2,5,2,3,6,2,3,0,12,5,11,5,3,12,5,11,0,0,6,12,0,0,0,3,11,0,6,2,2,11,12,0,3,3,0,5,11,3,0,2,12,7,11,2,0,0,0,5,11,0,11,0,0,12,5,3,3,2,0,12,0,0,0,0,3,12,12,5,3,0,5,11,2,5,0,0,0,0,0,0,0,0,0,0,0,0,0,0,0,0,0,0,0,0,0,0,0,0,0,0,0,0,0,0,0,0,0,0,0,0,0,0,0,0,0,0,0],"split_type":[0,0,0,0,0,0,0,0,0,0,0,0,0,0,0,0,0,0,0,0,0,0,0,0,0,0,0,0,0,0,0,0,0,0,0,0,0,0,0,0,0,0,0,0,0,0,0,0,0,0,0,0,0,0,0,0,0,0,0,0,0,0,0,0,0,0,0,0,0,0,0,0,0,0,0,0,0,0,0,0,0,0,0,0,0,0,0,0,0,0,0,0,0,0,0,0,0,0,0,0,0,0,0,0,0,0,0,0,0,0,0,0,0,0,0,0,0,0,0,0,0,0,0,0,0,0,0,0,0,0,0],"sum_hessian":[6.591623E3,2.8321487E3,3.7594746E3,2.600275E3,2.3187372E2,3.8994235E2,3.3695322E3,1.1664659E1,2.5886104E3,3.6290386E1,1.9558333E2,1.3075247E2,2.5918988E2,1.6066476E2,3.2088674E3,2.3862275E3,2.023827E2,2.8710701E1,7.5796857E0,1.8475114E2,1.0832184E1,3.728088E1,9.347159E1,2.4509172E2,1.4098165E1,6.0773087E1,9.989168E1,2.9971619E3,2.1170564E2,2.383147E3,3.0806384E0,1.1956132E2,8.282138E1,2.5050282E1,3.6604204E0,4.835997E0,2.7436888E0,2.6386137E1,1.58365E2,5.1121793E0,5.720004E0,5.046501E1,4.3006573E1,2.3433131E2,1.0760405E1,7.176893E0,6.9212713E0,5.797219E1,2.8008957E0,3.741769E1,6.2473988E1,4.2917148E2,2.5679905E3,1.7654092E2,3.516472E1,4.7121457E2,1.9119324E3,5.422474E1,2.859664E1,2.9937446E0,2.2056536E1,1.2826737E1,1.35594E1,6.7794174E1,9.057083E1,3.132625E0,2.5873792E0,4.201046E0,4.6263966E1,2.1442966E1,2.1563608E1,2.2932552E2,5.0057955E0,6.579172E0,4.1812325E0,3.764687E0,3.1565843E0,2.1668496E0,5.580534E1,1.7530918E1,1.988677E1,4.4214264E1,1.8259722E1,2.1357558E0,4.270357E2,3.2610012E1,1.4393091E2,1.9278732E1,1.5885987E1,4.027213E2,6.8493256E1,1.27269E3,6.3924243E2,4.0150158E1,1.4074584E1,5.8205075E0,7.00623E0,7.953911E0,5.605489E0,2.232185E1,6.8248985E1,2.12916E0,2.071886E0,3.062037E1,1.5643597E1,1.731147E1,4.131495E0,1.2705178E1,8.858429E0,1.1733545E2,1.1199007E2,2.9114E0,3.6677723E0,4.656366E1,9.241679E0,1.1816069E1,5.71485E0,1.3745028E1,6.1417427E0,2.2823844E0,4.193188E1,1.2180655E1,6.0790668E0,4.2921114E0,4.227436E2,2.545337E0,3.0064674E1,1.328951E2,1.1035814E1,5.0711093E0,1.4207623E1],"tree_param":{"num_deleted":"0","num_feature":"50","num_nodes":"131","size_leaf_vector":"1"}},{"base_weights":[5.0939345E-3,-1.5100975E0,1.1810163E0,-1.7045562E0,6.404615E-1,5.167117E-1,1.3624681E0,-1.7350482E0,9.255864E-1,-1.0825701E0,8.842426E-1,9.594615E-1,1.4829138E-1,4.032204E-1,1.3794863E0,-1.7470403E0,4.984957E-2,1.2800941E0,-5.98945E-1,-1.3169653E0,4.284919E-2,5.6387E-1,5.7540543E-2,6.9669175E-1,1.382045E0,-2.549762E-1,7.9474545E-1,-7.29246E-2,1.3116868E0,1.169619E0,1.416441E0,-1.7733053E0,-1.2574613E0,4.842809E-1,5.675186E-2,1.1602323E-2,-4.6852518E-2,-2.5240976E-1,-1.5051287E0,9.602159E-1,-2.8827628E-1,-1.221059E0,1.0418234E0,5.6553755E-2,6.4438097E-3,-1.68413E0,2.8556958E-1,1.1760459E0,5.1022585E-2,2.134117E-3,5.5837527E-2,-6.4436424E-1,1.2491528E0,-4.2815298E-2,1.4205129E0,-1.775718E0,2.874311E-2,-1.5216383E0,-6.6246516E-1,3.9032646E-2,-3.1674309E-3,4.2665582E-2,-5.903653E-2,-1.6411897E0,-2.5395614E-3,1.0747079E0,1.0511745E-1,-7.95283E-1,5.00957E-1,-1.4935446E0,4.5438237E-2,1.2158126E0,4.4416416E-1,-1.7786016E0,2.8945934E-3,-9.250732E-1,6.40899E-1,3.9558566E-1,1.2928618E0,-6.558794E-1,6.782778E-1,-1.6021082E0,7.2987825E-1,8.7203884E-1,1.3419086E0,6.774755E-1,1.4232918E0,-7.113736E-2,4.4445796E-3,-1.1660287E-2,-6.313989E-2,1.8749792E-2,-6.379822E-2,-7.1902394E-2,-2.4626765E-2,5.7058707E-3,4.6580195E-2,-3.6343317E-2,5.0074134E-2,-4.4703312E-2,-1.5069103E-3,3.3955257E-2,-2.9521458E-2,-6.483439E-2,-1.07540535E-2,3.3265185E-2,5.8556337E-2,-1.0866667E-3,5.2383155E-2,-7.576723E-2,-3.8700562E-2,-7.0109437E-3,-6.2327515E-2,-1.37533E-2,3.9009903E-2,-5.2578244E-2,4.0925406E-2,-1.16150975E-2,5.345614E-2,-4.724402E-2,4.987874E-2,-4.7458444E-2,3.659432E-2,-2.0855486E-2,-7.546237E-2,5.0977573E-2,-2.1419901E-2,4.7336463E-2,2.4635633E-2,5.530176E-2,1.836947E-2,-2.6487013E-2,4.3842457E-2,4.919671E-2,5.7219505E-2],"categories":[],"categories_nodes":[],"categories_segments":[],"categories_sizes":[],"default_left":[0,0,0,0,0,0,0,0,0,0,0,0,0,0,0,0,0,0,0,0,0,0,0,0,0,0,0,0,0,0,0,0,0,0,0,0,0,0,0,0,0,0,0,0,0,0,0,0,0,0,0,0,0,0,0,0,0,0,0,0,0,0,0,0,0,0,0,0,0,0,0,0,0,0,0,0,0,0,0,0,0,0,0,0,0,0,0,0,0,0,0,0,0,0,0,0,0,0,0,0,0,0,0,0,0,0,0,0,0,0,0,0,0,0,0,0,0,0,0,0,0,0,0,0,0,0,0,0,0,0,0,0,0,0,0],"id":6,"left_children":[1,3,5,7,9,11,13,15,17,19,21,23,25,27,29,31,-1,33,35,37,-1,39,-1,41,43,45,47,-1,49,51,53,55,57,59,-1,-1,-1,61,63,65,67,69,71,-1,-1,73,75,77,79,-1,-1,81,83,-1,85,87,-1,89,91,-1,-1,-1,-1,93,-1,95,97,99,101,103,-1,105,107,109,-1,111,113,115,117,119,121,123,125,127,129,131,133,-1,-1,-1,-1,-1,-1,-1,-1,-1,-1,-1,-1,-1,-1,-1,-1,-1,-1,-1,-1,-1,-1,-1,-1,-1,-1,-1,-1,-1,-1,-1,-1,-1,-1,-1,-1,-1,-1,-1,-1,-1,-1,-1,-1,-1,-1,-1,-1],"loss_changes":[1.1495292E4,1.1801465E3,4.3697607E2,2.0905371E2,9.942011E1,1.27154465E2,4.5831543E1,9.3623535E1,1.7182308E1,1.6307583E1,3.556865E1,3.8187714E1,1.1173717E2,1.0597558E2,1.9817383E1,3.0214355E1,0E0,1.8725052E0,3.6511774E0,4.864403E0,0E0,4.5028694E1,0E0,1.4733765E2,4.8457947E0,2.0457523E2,4.6500305E1,0E0,3.7036324E0,6.228296E1,2.5632324E1,1.5896484E1,1.972586E1,1.6411637E0,0E0,0E0,0E0,1.024223E1,4.1804657E0,8.640259E0,1.7510065E1,2.3619526E1,1.8805145E1,0E0,0E0,1.2354553E1,8.331435E1,9.229095E0,2.5689465E1,0E0,0E0,2.5589737E1,1.2887634E1,0E0,3.727539E0,1.2727539E1,0E0,5.7474213E0,4.60851E1,0E0,0E0,0E0,0E0,1.9634819E0,0E0,6.373909E0,1.5018123E1,6.3023243E0,8.066742E0,4.211548E0,0E0,1.2337372E1,1.8116169E1,4.352707E0,0E0,2.0437763E1,4.9577156E1,1.816692E1,6.971924E0,2.8648542E1,1.4615073E1,2.2342033E0,6.432303E0,5.763218E0,1.0858032E1,6.87486E0,1.2641602E0,0E0,0E0,0E0,0E0,0E0,0E0,0E0,0E0,0E0,0E0,0E0,0E0,0E0,0E0,0E0,0E0,0E0,0E0,0E0,0E0,0E0,0E0,0E0,0E0,0E0,0E0,0E0,0E0,0E0,0E0,0E0,0E0,0E0,0E0,0E0,0E0,0E0,0E0,0E0,0E0,0E0,0E0,0E0,0E0,0E0,0E0,0E0,0E0],"parents":[2147483647,0,0,1,1,2,2,3,3,4,4,5,5,6,6,7,7,8,8,9,9,10,10,11,11,12,12,13,13,14,14,15,15,17,17,18,18,19,19,21,21,23,23,24,24,25,25,26,26,28,28,29,29,30,30,31,31,32,32,33,33,37,37,38,38,39,39,40,40,41,41,42,42,45,45,46,46,47,47,48,48,51,51,52,52,54,54,55,55,57,57,58,58,63,63,65,65,66,66,67,67,68,68,69,69,71,71,72,72,73,73,75,75,76,76,77,77,78,78,79,79,80,80,81,81,82,82,83,83,84,84,85,85,86,86],"right_children":[2,4,6,8,10,12,14,16,18,20,22,24,26,28,30,32,-1,34,36,38,-1,40,-1,42,44,46,48,-1,50,52,54,56,58,60,-1,-1,-1,62,64,66,68,70,72,-1,-1,74,76,78,80,-1,-1,82,84,-1,86,88,-1,90,92,-1,-1,-1,-1,94,-1,96,98,100,102,104,-1,106,108,110,-1,112,114,116,118,120,122,124,126,128,130,132,134,-1,-1,-1,-1,-1,-1,-1,-1,-1,-1,-1,-1,-1,-1,-1,-1,-1,-1,-1,-1,-1,-1,-1,-1,-1,-1,-1,-1,-1,-1,-1,-1,-1,-1,-1,-1,-1,-1,-1,-1,-1,-1,-1,-1,-1,-1,-1,-1],"split_conditions":[9.8853326E-1,7.368421E-1,6E-1,9.9855655E-1,1E0,2.3958978E-16,2.2229682E-1,1E0,1.9829415E-2,7.3333335E-1,9.549672E-1,3.782925E-2,5.882353E-2,8.266776E-2,1.4176469E-1,6.666667E-1,4.984957E-2,5.0017744E-1,4.6093068E-1,6.24E-13,4.284919E-2,1.4355293E-2,5.7540543E-2,5.227892E-1,9.9187565E-1,4.6093068E-1,1.1E-11,-7.29246E-2,1.412123E-1,3.5520187E-1,1.757469E-3,1E0,2.8559002E-1,2.8605908E-1,5.675186E-2,1.1602323E-2,-4.6852518E-2,7.63855E-1,8.7999374E-1,1.2659976E-1,2.2559877E-1,8.306094E-4,1.4176469E-1,5.6553755E-2,6.4438097E-3,2.475E-3,1.4355293E-2,2.080245E-1,2.6531804E-1,2.134117E-3,5.5837527E-2,6.25E-2,7.567568E-1,-4.2815298E-2,3.0724725E-3,7.5949365E-1,2.874311E-2,1.28E-16,7.2639346E-1,3.9032646E-2,-3.1674309E-3,4.2665582E-2,-5.903653E-2,9.610572E-1,-2.5395614E-3,9.519391E-3,2.9859614E-1,8.8235295E-1,6.798298E-1,5.7846284E-1,4.5438237E-2,9.63E-13,1.8867925E-2,5.4206944E-1,2.8945934E-3,1.02566935E-1,4.504505E-3,1.9114052E-1,9.9829865E-1,5.43946E-1,1.7642169E-1,1.52E-16,1.06098086E-1,7.674673E-2,3.712321E-11,9.2928636E-1,1.0989011E-2,-7.113736E-2,4.4445796E-3,-1.1660287E-2,-6.313989E-2,1.8749792E-2,-6.379822E-2,-7.1902394E-2,-2.4626765E-2,5.7058707E-3,4.6580195E-2,-3.6343317E-2,5.0074134E-2,-4.4703312E-2,-1.5069103E-3,3.3955257E-2,-2.9521458E-2,-6.483439E-2,-1.07540535E-2,3.3265185E-2,5.8556337E-2,-1.0866667E-3,5.2383155E-2,-7.576723E-2,-3.8700562E-2,-7.0109437E-3,-6.2327515E-2,-1.37533E-2,3.9009903E-2,-5.2578244E-2,4.0925406E-2,-1.16150975E-2,5.345614E-2,-4.724402E-2,4.987874E-2,-4.7458444E-2,3.659432E-2,-2.0855486E-2,-7.546237E-2,5.0977573E-2,-2.1419901E-2,4.7336463E-2,2.4635633E-2,5.530176E-2,1.836947E-2,-2.6487013E-2,4.3842457E-2,4.919671E-2,5.7219505E-2],"split_indices":[0,3,3,15,1,15,8,21,6,5,15,5,5,5,12,3,0,3,8,1,0,15,0,8,6,8,1,0,5,8,5,5,12,8,0,0,0,15,15,4,12,1,12,0,0,1,15,8,12,0,0,5,3,0,5,12,0,1,8,0,0,0,0,0,0,5,4,3,8,3,0,1,5,3,0,12,5,5,0,8,8,1,12,12,1,8,5,0,0,0,0,0,0,0,0,0,0,0,0,0,0,0,0,0,0,0,0,0,0,0,0,0,0,0,0,0,0,0,0,0,0,0,0,0,0,0,0,0,0,0,0,0,0,0,0],"split_type":[0,0,0,0,0,0,0,0,0,0,0,0,0,0,0,0,0,0,0,0,0,0,0,0,0,0,0,0,0,0,0,0,0,0,0,0,0,0,0,0,0,0,0,0,0,0,0,0,0,0,0,0,0,0,0,0,0,0,0,0,0,0,0,0,0,0,0,0,0,0,0,0,0,0,0,0,0,0,0,0,0,0,0,0,0,0,0,0,0,0,0,0,0,0,0,0,0,0,0,0,0,0,0,0,0,0,0,0,0,0,0,0,0,0,0,0,0,0,0,0,0,0,0,0,0,0,0,0,0,0,0,0,0,0,0],"sum_hessian":[6.4497124E3,2.8181367E3,3.6315754E3,2.584678E3,2.3345886E2,7.800758E2,2.8514998E3,2.5554304E3,2.924746E1,2.8459274E1,2.0499959E2,3.5344586E2,4.2662994E2,5.0239933E1,2.8012598E3,2.5456384E3,9.79216E0,2.3912811E1,5.3346486E0,2.6058346E1,2.4009275E0,1.3130316E2,7.369642E1,2.1971103E2,1.3373483E2,2.630108E2,1.6361913E2,1.4235873E1,3.600406E1,4.2470377E2,2.3765562E3,2.4133406E3,1.322977E2,4.3228264E0,1.9589985E1,2.2141478E0,3.1205006E0,4.345587E0,2.1712759E1,8.961324E1,4.1689926E1,3.307874E1,1.8663228E2,1.301064E2,3.628429E0,7.164839E1,1.9136241E2,1.0769107E2,5.5928066E1,2.4363444E0,3.3567715E1,1.7487827E1,4.0721594E2,3.4168055E0,2.3731392E3,2.4113335E3,2.0071912E0,9.042413E1,4.187357E1,2.0127158E0,2.3101103E0,2.1135075E0,2.232079E0,1.9650385E1,2.062374E0,7.870183E1,1.0911414E1,2.5455956E1,1.623397E1,3.0017317E1,3.061422E0,1.4362027E2,4.3012012E1,6.80336E1,3.614787E0,4.2993706E1,1.483687E2,1.4702752E1,9.298831E1,2.6198221E1,2.9729843E1,1.0250767E1,7.2370605E0,8.265365E1,3.245623E2,9.888253E0,2.363251E3,2.4079775E3,3.355901E0,4.343313E0,8.6080826E1,1.909698E1,2.277659E1,1.6312706E1,3.33768E0,7.241348E0,7.146048E1,5.855606E0,5.0558085E0,1.7432674E1,8.023281E0,1.2983593E1,3.250378E0,2.6823675E1,3.1936424E0,5.822007E1,8.54002E1,2.8398432E1,1.4613582E1,5.8271347E1,9.762256E0,2.03399E1,2.2653807E1,3.752417E1,1.10844536E2,3.610468E0,1.1092284E1,2.2756782E0,9.071264E1,2.0869661E1,5.3285594E0,2.8475504E0,2.6882292E1,2.7994123E0,7.4513545E0,5.109867E0,2.1271932E0,3.5495266E1,4.715838E1,3.096284E2,1.4933901E1,2.1586936E0,7.7295594E0,9.145219E1,2.2717988E3],"tree_param":{"num_deleted":"0","num_feature":"50","num_nodes":"135","size_leaf_vector":"1"}},{"base_weights":[1.6613307E-3,-1.4546025E0,1.1516263E0,-1.6376106E0,5.858254E-1,-6.512087E-1,1.3624485E0,-1.6733782E0,6.007199E-1,-1.0227666E0,1.0257748E0,5.5141646E-1,-1.2534318E0,9.2379636E-1,1.3886642E0,4.8833225E-2,-1.6848496E0,-1.2883937E0,1.2418063E0,-1.3204663E0,4.992423E-2,1.1536236E0,-8.548356E-1,9.54262E-1,-2.0901799E-1,-1.4220998E0,-2.7047735E-1,6.2389046E-1,1.209667E0,1.4075614E0,1.109874E0,-1.7091482E0,-1.2298106E0,-6.2296655E-2,-1.0998336E-2,1.3781818E0,-6.975094E-3,-1.4505448E0,-7.525337E-2,5.648607E-2,9.496169E-1,3.0507058E-2,-1.2624639E0,4.5314997E-1,1.3776655E0,-9.101654E-1,6.1963075E-1,-1.5201572E0,3.440342E-1,1.274862E-1,-1.2330788E0,-3.0012062E-1,1.071351E0,1.2866783E0,3.3526513E-1,1.2696553E0,1.4280739E0,1.2592146E0,6.034772E-1,-1.7120291E0,4.1869085E-2,-7.191855E-2,-2.5815046E-1,1.7440109E-2,5.7412982E-2,1.0572302E-2,-1.5562782E0,-4.3002352E-2,4.0421315E-2,-3.405708E-2,1.00956E0,-6.1166544E-2,-8.998156E-3,1.2009279E0,-2.1165824E-1,5.7600792E-2,6.846496E-3,-1.7190144E0,3.2986796E-1,-5.7739794E-1,1.0427877E0,-1.5715606E0,4.617422E-2,-5.0792493E-2,4.5202512E-2,6.936595E-1,-5.705692E-1,-5.4164887E-3,-7.005386E-2,-8.4924614E-1,4.972995E-2,1.3581187E0,2.282121E-1,2.1213759E-3,1.3280593E0,-3.811954E-2,4.7933582E-2,-2.931588E-2,1.283393E0,9.1127765E-1,5.719173E-2,1.3048575E0,4.628993E-1,6.593826E-3,1.1109518E0,-6.863461E-2,-2.9260175E-2,1.5041211E-2,-6.6002175E-2,-7.044397E-2,-3.2769192E-2,2.0473704E-2,4.5795236E-2,9.317959E-3,5.2977595E-2,-3.7306096E-2,4.9776297E-2,-2.0932268E-2,-7.516215E-2,-3.218816E-2,3.8393043E-2,2.9844774E-2,-5.8322202E-2,2.5850544E-2,5.2457407E-2,-7.0338055E-2,-4.1559257E-2,1.1605729E-2,5.413679E-2,-4.4531435E-2,4.672092E-2,8.387011E-4,-5.7263877E-2,5.590165E-2,1.2861874E-2,4.822271E-2,-2.903608E-2,5.463365E-2,1.283135E-2,5.192374E-2,1.0935932E-2,5.2201193E-2,-1.7865116E-2,5.3173237E-2,-0E0,-5.610396E-3,3.6564045E-2,3.9749026E-2,-4.810019E-2,5.283724E-2,-0E0],"categories":[],"categories_nodes":[],"categories_segments":[],"categories_sizes":[],"default_left":[0,0,0,0,0,0,0,0,0,0,0,0,0,0,0,0,0,0,0,0,0,0,0,0,0,0,0,0,0,0,0,0,0,0,0,0,0,0,0,0,0,0,0,0,0,0,0,0,0,0,0,0,0,0,0,0,0,0,0,0,0,0,0,0,0,0,0,0,0,0,0,0,0,0,0,0,0,0,0,0,0,0,0,0,0,0,0,0,0,0,0,0,0,0,0,0,0,0,0,0,0,0,0,0,0,0,0,0,0,0,0,0,0,0,0,0,0,0,0,0,0,0,0,0,0,0,0,0,0,0,0,0,0,0,0,0,0,0,0,0,0,0,0,0,0,0,0,0,0,0,0],"id":7,"left_children":[1,3,5,7,9,11,13,15,17,19,21,23,25,27,29,-1,31,33,35,37,-1,39,41,43,45,47,49,51,53,55,57,59,61,-1,-1,63,-1,65,67,-1,69,-1,71,73,75,77,79,81,83,85,87,89,91,93,95,97,99,101,103,105,-1,-1,107,-1,-1,-1,109,-1,-1,-1,111,-1,-1,113,115,-1,-1,117,119,121,123,125,-1,-1,-1,127,129,-1,-1,131,-1,133,135,-1,137,-1,-1,-1,139,141,-1,143,145,147,149,-1,-1,-1,-1,-1,-1,-1,-1,-1,-1,-1,-1,-1,-1,-1,-1,-1,-1,-1,-1,-1,-1,-1,-1,-1,-1,-1,-1,-1,-1,-1,-1,-1,-1,-1,-1,-1,-1,-1,-1,-1,-1,-1,-1,-1,-1],"loss_changes":[1.0718694E4,1.0556357E3,1.3602803E3,2.0862744E2,1.6604385E2,2.7240237E2,3.531201E1,8.681494E1,5.1806053E1,3.5810135E1,4.516446E1,3.8807335E1,4.094055E1,1.4819672E1,1.4094238E1,0E0,2.571045E1,2.3755417E0,6.44503E0,7.0581512E0,0E0,7.515808E0,9.065356E0,1.669529E1,2.6328432E1,3.7580597E1,1.4816313E1,3.8408955E1,5.659851E0,5.9052734E0,1.3932907E1,2.0993652E1,7.254834E1,0E0,0E0,7.436905E-1,0E0,7.936386E0,6.9568324E0,0E0,1.1631882E1,0E0,2.2976208E0,1.9928907E1,2.9111938E0,2.5242958E1,1.1200211E1,2.9670502E1,1.6619923E1,1.1356546E1,5.9887295E0,2.703686E1,1.4577728E1,4.125061E0,1.1144764E1,1.1319763E1,6.3964844E-1,4.7025757E0,1.4081245E1,7.5581055E0,0E0,0E0,4.5033382E1,0E0,0E0,0E0,4.129524E0,0E0,0E0,0E0,5.7771225E0,0E0,0E0,1.777792E0,2.3831324E1,0E0,0E0,1.649868E0,8.255297E0,8.178705E0,6.407032E-1,1.7697021E1,0E0,0E0,0E0,3.65633E0,1.3443944E1,0E0,0E0,1.1972355E1,0E0,1.2644272E0,1.685438E1,0E0,2.5144196E0,0E0,0E0,0E0,5.028137E0,6.5891685E0,0E0,4.574585E0,2.8854296E0,2.8194822E1,5.9370937E0,0E0,0E0,0E0,0E0,0E0,0E0,0E0,0E0,0E0,0E0,0E0,0E0,0E0,0E0,0E0,0E0,0E0,0E0,0E0,0E0,0E0,0E0,0E0,0E0,0E0,0E0,0E0,0E0,0E0,0E0,0E0,0E0,0E0,0E0,0E0,0E0,0E0,0E0,0E0,0E0,0E0,0E0,0E0,0E0,0E0,0E0],"parents":[2147483647,0,0,1,1,2,2,3,3,4,4,5,5,6,6,7,7,8,8,9,9,10,10,11,11,12,12,13,13,14,14,16,16,17,17,18,18,19,19,21,21,22,22,23,23,24,24,25,25,26,26,27,27,28,28,29,29,30,30,31,31,32,32,35,35,37,37,38,38,40,40,42,42,43,43,44,44,45,45,46,46,47,47,48,48,49,49,50,50,51,51,52,52,53,53,54,54,55,55,56,56,57,57,58,58,59,59,62,62,66,66,70,70,73,73,74,74,77,77,78,78,79,79,80,80,81,81,85,85,86,86,89,89,91,91,92,92,94,94,98,98,99,99,101,101,102,102,103,103,104,104],"right_children":[2,4,6,8,10,12,14,16,18,20,22,24,26,28,30,-1,32,34,36,38,-1,40,42,44,46,48,50,52,54,56,58,60,62,-1,-1,64,-1,66,68,-1,70,-1,72,74,76,78,80,82,84,86,88,90,92,94,96,98,100,102,104,106,-1,-1,108,-1,-1,-1,110,-1,-1,-1,112,-1,-1,114,116,-1,-1,118,120,122,124,126,-1,-1,-1,128,130,-1,-1,132,-1,134,136,-1,138,-1,-1,-1,140,142,-1,144,146,148,150,-1,-1,-1,-1,-1,-1,-1,-1,-1,-1,-1,-1,-1,-1,-1,-1,-1,-1,-1,-1,-1,-1,-1,-1,-1,-1,-1,-1,-1,-1,-1,-1,-1,-1,-1,-1,-1,-1,-1,-1,-1,-1,-1,-1,-1,-1],"split_conditions":[9.8853326E-1,7.368421E-1,1.5838659E-1,9.9233085E-1,2.7711982E-1,6.2794685E-2,2.5468695E-1,1.8870945E-5,6.863487E-1,9.602381E-1,7.08956E-10,3.3861555E-2,7.692308E-2,5.7258874E-1,3.1618673E-1,4.8833225E-2,6.666667E-1,4.9449503E-1,1.2659976E-1,9.230769E-1,4.992423E-2,7.816293E-1,2.9248512E-1,6.5344125E-1,7.589147E-2,2.985527E-3,3.0820447E-1,5.9254515E-1,2.519606E-1,1.327939E-1,1.0003118E-11,1E0,2.8542957E-1,-6.2296655E-2,-1.0998336E-2,4.0384614E-1,-6.975094E-3,1.8549284E-2,9.7795343E-1,5.648607E-2,8.144143E-1,3.0507058E-2,8.541667E-1,9.9702305E-1,9.390875E-1,5.305119E-1,5.227892E-1,8.852459E-1,6.863487E-1,1.91E-12,1.7494673E-1,2.0501345E-1,2.3446013E-1,5.8743935E-3,6.779337E-1,2.9287618E-1,2.3269297E-1,9.3606925E-1,5.037087E-1,9.777825E-1,4.1869085E-2,-7.191855E-2,8.0678785E-1,1.7440109E-2,5.7412982E-2,1.0572302E-2,2.3546705E-1,-4.3002352E-2,4.0421315E-2,-3.405708E-2,9.925782E-1,-6.1166544E-2,-8.998156E-3,4.7990748E-1,4.0088844E-2,5.7600792E-2,6.846496E-3,4.7153124E-1,4.790968E-1,1.28E-16,1.19E-13,8.332161E-2,4.617422E-2,-5.0792493E-2,4.5202512E-2,2.080245E-1,6.303939E-1,-5.4164887E-3,-7.005386E-2,8.918041E-2,4.972995E-2,2.5431657E-1,4.971671E-1,2.1213759E-3,9.741841E-1,-3.811954E-2,4.7933582E-2,-2.931588E-2,9.5404977E-1,2.4E-10,5.719173E-2,9.999928E-1,2.1278563E-1,3.9093822E-1,2.94347E-1,-6.863461E-2,-2.9260175E-2,1.5041211E-2,-6.6002175E-2,-7.044397E-2,-3.2769192E-2,2.0473704E-2,4.5795236E-2,9.317959E-3,5.2977595E-2,-3.7306096E-2,4.9776297E-2,-2.0932268E-2,-7.516215E-2,-3.218816E-2,3.8393043E-2,2.9844774E-2,-5.8322202E-2,2.5850544E-2,5.2457407E-2,-7.0338055E-2,-4.1559257E-2,1.1605729E-2,5.413679E-2,-4.4531435E-2,4.672092E-2,8.387011E-4,-5.7263877E-2,5.590165E-2,1.2861874E-2,4.822271E-2,-2.903608E-2,5.463365E-2,1.283135E-2,5.192374E-2,1.0935932E-2,5.2201193E-2,-1.7865116E-2,5.3173237E-2,-0E0,-5.610396E-3,3.6564045E-2,3.9749026E-2,-4.810019E-2,5.283724E-2,-0E0],"split_indices":[0,3,2,15,2,12,2,11,7,15,0,12,5,8,2,0,3,7,4,3,0,11,8,8,2,1,8,3,12,12,1,5,2,0,0,3,0,12,11,0,11,0,3,0,8,3,8,3,7,1,12,12,11,11,3,3,3,2,8,0,0,0,8,0,0,0,2,0,0,0,11,0,0,3,15,0,0,8,8,1,1,2,0,0,0,8,3,0,0,12,0,5,8,0,8,0,0,0,8,1,0,15,12,8,12,0,0,0,0,0,0,0,0,0,0,0,0,0,0,0,0,0,0,0,0,0,0,0,0,0,0,0,0,0,0,0,0,0,0,0,0,0,0,0,0,0,0,0,0,0,0],"split_type":[0,0,0,0,0,0,0,0,0,0,0,0,0,0,0,0,0,0,0,0,0,0,0,0,0,0,0,0,0,0,0,0,0,0,0,0,0,0,0,0,0,0,0,0,0,0,0,0,0,0,0,0,0,0,0,0,0,0,0,0,0,0,0,0,0,0,0,0,0,0,0,0,0,0,0,0,0,0,0,0,0,0,0,0,0,0,0,0,0,0,0,0,0,0,0,0,0,0,0,0,0,0,0,0,0,0,0,0,0,0,0,0,0,0,0,0,0,0,0,0,0,0,0,0,0,0,0,0,0,0,0,0,0,0,0,0,0,0,0,0,0,0,0,0,0,0,0,0,0,0,0],"sum_hessian":[6.3985664E3,2.82313E3,3.5754363E3,2.590988E3,2.3214201E2,3.7406595E2,3.2013704E3,2.5505286E3,4.045933E1,4.9522034E1,1.8261998E2,1.247872E2,2.4927875E2,1.8279735E2,3.018573E3,9.61865E0,2.54091E3,9.955978E0,3.0503353E1,4.4191334E1,5.3306994E0,1.7140703E2,1.1212943E1,8.149255E1,4.329465E1,2.1230092E2,3.697782E1,9.093255E1,9.18648E1,2.8228267E3,1.957464E2,2.4092808E3,1.3162906E2,7.3653555E0,2.5906234E0,2.7912851E1,2.5905023E0,3.9789593E1,4.4017434E0,7.277295E1,9.863409E1,2.032286E0,9.180657E0,3.837771E1,4.3114845E1,2.346361E1,1.9831041E1,2.0131938E2,1.0981535E1,2.6702158E1,1.0275665E1,2.9702452E1,6.12301E1,8.3890434E1,7.974362E0,3.742826E2,2.448544E3,1.4986566E2,4.588074E1,2.4071797E3,2.1012554E0,8.245961E1,4.9169456E1,2.1896482E0,2.5723204E1,2.1688142E0,3.7620777E1,2.3446968E0,2.0570467E0,2.698001E0,9.593609E1,6.8496428E0,2.3310146E0,1.775304E1,2.0624668E1,4.0733246E1,2.3816004E0,1.4015778E1,9.447833E0,5.0225115E0,1.4808529E1,1.9796436E2,3.3550365E0,3.353515E0,7.6280203E0,1.4826416E1,1.1875741E1,3.7620494E0,6.5136156E0,2.228726E1,7.415191E0,4.5145767E1,1.6084332E1,2.8751466E0,8.101529E1,3.1108944E0,4.8634677E0,2.1438465E0,3.7213876E2,1.00729475E1,2.438471E3,1.4101863E2,8.847026E0,2.163916E1,2.424158E1,2.3969502E3,1.022934E1,3.4231064E1,1.4938393E1,2.8246252E1,9.374526E0,2.1687988E1,7.42481E1,2.4271157E0,1.5325924E1,1.4080589E1,6.5440793E0,2.2322905E0,1.1783486E1,3.2172837E0,6.2305493E0,2.0223663E0,3.000145E0,7.506613E0,7.301916E0,1.4469792E2,5.326643E1,1.0187175E1,4.639241E0,9.368471E0,2.5072699E0,9.252868E0,1.3034392E1,4.306329E1,2.0824769E0,7.8669806E0,8.217351E0,7.764755E1,3.3677387E0,3.6642123E2,5.7175236E0,7.895941E0,2.1770065E0,1.3842625E2,2.5923722E0,3.9860506E0,4.8609757E0,1.2056682E1,9.582479E0,2.025708E1,3.984499E0],"tree_param":{"num_deleted":"0","num_feature":"50","num_nodes":"151","size_leaf_vector":"1"}},{"base_weights":[3.7417524E-3,-1.4089317E0,1.1226021E0,-1.5099212E0,1.0538938E0,-3.1043453E-2,1.1600174E0,4.787828E-2,-1.5199775E0,1.3467038E0,-1.2821374E0,-1.982029E-1,5.3317096E-2,1.2871524E0,9.457139E-1,-6.887248E-2,-1.3926272E0,1.3805401E0,-0E0,-6.336669E-2,-1.02534555E-2,2.9535538E-1,-5.9424937E-1,1.3086426E0,5.845119E-1,7.9669887E-1,5.4871865E-2,1.3037939E-2,-1.4399023E0,5.6247983E-2,2.4395688E-2,4.2887237E-2,6.536141E-2,3.9631058E-2,-6.734261E-1,2.3435816E-1,1.3137184E0,1.8636796E-1,9.371009E-1,8.6472374E-1,-9.206302E-2,-2.511951E-1,6.4208746E-2,-1.2583156E0,-1.6464334E0,-4.0339325E-2,2.8564742E-1,-1.856676E-1,-8.7711346E-1,-8.0768086E-2,2.9752392E-2,8.9980865E-1,1.3217967E0,9.8805386E-1,-1.0987504E0,-1.2228385E-2,1.0944521E0,9.055939E-1,-5.359753E-1,-1.8040246E-3,-3.5752244E-2,-5.882528E-2,-3.988457E-2,-6.612416E-2,9.62147E-3,5.940306E-3,3.8993962E-2,-1.8399527E-2,4.244254E-2,-1.2669559E-2,-4.0671144E-2,-2.2977011E-2,1.1449782E-2,5.195615E-2,2.4137722E-2,5.170373E-2,5.6492776E-2,5.4281335E-2,-2.169033E-5,-8.295651E-3,-6.562755E-2,3.017087E-3,4.647676E-2,3.351087E-2,5.058545E-2,-4.0042408E-2,4.9720816E-2],"categories":[],"categories_nodes":[],"categories_segments":[],"categories_sizes":[],"default_left":[0,0,0,0,0,0,0,0,0,0,0,0,0,0,0,0,0,0,0,0,0,0,0,0,0,0,0,0,0,0,0,0,0,0,0,0,0,0,0,0,0,0,0,0,0,0,0,0,0,0,0,0,0,0,0,0,0,0,0,0,0,0,0,0,0,0,0,0,0,0,0,0,0,0,0,0,0,0,0,0,0,0,0,0,0,0,0],"id":8,"left_children":[1,3,5,7,9,11,13,-1,15,17,19,21,-1,23,25,-1,27,29,-1,-1,-1,31,33,35,37,39,-1,41,43,-1,-1,-1,45,-1,47,49,51,53,55,57,-1,59,-1,61,63,-1,65,67,69,71,-1,73,75,77,79,-1,81,83,85,-1,-1,-1,-1,-1,-1,-1,-1,-1,-1,-1,-1,-1,-1,-1,-1,-1,-1,-1,-1,-1,-1,-1,-1,-1,-1,-1,-1],"loss_changes":[9.976964E3,6.9550635E2,1.521919E2,7.48125E1,7.7275375E1,2.5582355E1,9.1518555E1,0E0,6.594287E1,4.6275635E0,3.3679867E0,1.9811321E1,0E0,3.1335693E1,7.961096E1,0E0,1.0935327E2,8.453369E-1,0E0,0E0,0E0,7.893385E0,7.6748238E0,1.0846191E1,8.89501E0,2.0139679E2,0E0,2.341922E1,5.7259033E1,0E0,0E0,0E0,8.742486E0,0E0,5.1035805E0,1.9024241E0,5.489746E0,3.4146763E1,7.1224384E0,5.360315E1,0E0,6.150785E0,0E0,4.5451294E1,9.8573E0,0E0,2.6508489E0,6.359579E0,2.4979E0,1.5730553E0,0E0,4.0977097E0,3.2492676E0,7.5569744E0,5.637679E0,0E0,1.902092E0,2.0679932E1,2.3432796E1,0E0,0E0,0E0,0E0,0E0,0E0,0E0,0E0,0E0,0E0,0E0,0E0,0E0,0E0,0E0,0E0,0E0,0E0,0E0,0E0,0E0,0E0,0E0,0E0,0E0,0E0,0E0,0E0],"parents":[2147483647,0,0,1,1,2,2,3,3,4,4,5,5,6,6,8,8,9,9,10,10,11,11,13,13,14,14,16,16,17,17,21,21,22,22,23,23,24,24,25,25,27,27,28,28,32,32,34,34,35,35,36,36,37,37,38,38,39,39,41,41,43,43,44,44,46,46,47,47,48,48,49,49,51,51,52,52,53,53,54,54,56,56,57,57,58,58],"right_children":[2,4,6,8,10,12,14,-1,16,18,20,22,-1,24,26,-1,28,30,-1,-1,-1,32,34,36,38,40,-1,42,44,-1,-1,-1,46,-1,48,50,52,54,56,58,-1,60,-1,62,64,-1,66,68,70,72,-1,74,76,78,80,-1,82,84,86,-1,-1,-1,-1,-1,-1,-1,-1,-1,-1,-1,-1,-1,-1,-1,-1,-1,-1,-1,-1,-1,-1,-1,-1,-1,-1,-1,-1],"split_conditions":[9.8853326E-1,9.906286E-1,2.2229682E-1,1.8870945E-5,1.9829415E-2,1.4353709E-1,9.65E-16,4.787828E-2,1E0,7.08956E-10,4.9449503E-1,1.29E-15,5.3317096E-2,8.4541297E-1,1.9624153E-1,-6.887248E-2,7.067818E-1,1.2659976E-1,-0E0,-6.336669E-2,-1.02534555E-2,2.7443212E-3,9.9934167E-1,9.9923056E-1,6.01417E-3,1.2659976E-1,5.4871865E-2,1.4989439E-1,7.293904E-1,5.6247983E-2,2.4395688E-2,4.2887237E-2,1.6563619E-2,3.9631058E-2,6.3003056E-2,9.9545205E-1,2.6092657E-1,3.065758E-18,9.131469E-3,9.867021E-1,-9.206302E-2,6.921281E-1,6.4208746E-2,9.999666E-1,5.406888E-1,-4.0339325E-2,7.63855E-1,3.62E-10,3.065758E-18,2.1056028E-1,2.9752392E-2,2.2639292E-1,2.0072909E-1,9.440388E-1,2.5E-1,-1.2228385E-2,9.9999636E-1,2.985527E-3,9.994248E-1,-1.8040246E-3,-3.5752244E-2,-5.882528E-2,-3.988457E-2,-6.612416E-2,9.62147E-3,5.940306E-3,3.8993962E-2,-1.8399527E-2,4.244254E-2,-1.2669559E-2,-4.0671144E-2,-2.2977011E-2,1.1449782E-2,5.195615E-2,2.4137722E-2,5.170373E-2,5.6492776E-2,5.4281335E-2,-2.169033E-5,-8.295651E-3,-6.562755E-2,3.017087E-3,4.647676E-2,3.351087E-2,5.058545E-2,-4.0042408E-2,4.9720816E-2],"split_indices":[0,15,8,11,6,4,1,0,7,0,7,1,0,8,4,0,11,4,0,0,0,11,0,0,15,4,0,4,8,0,0,0,11,0,11,6,8,15,11,6,0,8,0,11,15,0,15,1,15,11,0,8,4,8,11,0,0,1,6,0,0,0,0,0,0,0,0,0,0,0,0,0,0,0,0,0,0,0,0,0,0,0,0,0,0,0,0],"split_type":[0,0,0,0,0,0,0,0,0,0,0,0,0,0,0,0,0,0,0,0,0,0,0,0,0,0,0,0,0,0,0,0,0,0,0,0,0,0,0,0,0,0,0,0,0,0,0,0,0,0,0,0,0,0,0,0,0,0,0,0,0,0,0,0,0,0,0,0,0,0,0,0,0,0,0,0,0,0,0,0,0,0,0,0,0,0,0],"sum_hessian":[6.3102163E3,2.788768E3,3.5214482E3,2.6793284E3,1.09439766E2,1.1054198E2,3.4109062E3,9.443379E0,2.669885E3,9.7664345E1,1.1775427E1,9.930037E1,1.1241608E1,2.137416E3,1.2734902E3,1.027739E3,1.6421459E3,9.5315216E1,2.349127E0,8.601154E0,3.174272E0,4.420868E1,5.5091686E1,2.0730083E3,6.440766E1,9.458132E2,3.2767712E2,5.3386086E1,1.5887599E3,9.132017E1,3.99505E0,9.163054E0,3.5045628E1,2.0132027E0,5.3078484E1,1.0062827E1,2.0629456E3,3.1100794E1,3.330687E1,9.262302E2,1.9582891E1,4.6455853E1,6.9302344E0,8.4946655E2,7.392933E2,5.2791142E0,2.9766512E1,1.6343685E1,3.67348E1,6.615758E0,3.4470696E0,4.187997E1,2.0210656E3,1.9343102E1,1.1757693E1,3.5656745E0,2.9741196E1,9.003834E2,2.5846842E1,3.610293E1,1.0352924E1,4.6581635E2,3.8365024E2,7.368653E2,2.4279904E0,2.596123E1,3.805283E0,1.3979094E1,2.3645918E0,8.123791E0,2.8611008E1,2.696335E0,3.9194226E0,1.6261513E1,2.5618458E1,1.5404789E3,4.8058667E2,1.3888049E1,5.455052E0,5.038224E0,6.7194686E0,2.0703695E0,2.7670826E1,7.6036456E2,1.4001883E2,2.0881315E1,4.965527E0],"tree_param":{"num_deleted":"0","num_feature":"50","num_nodes":"87","size_leaf_vector":"1"}},{"base_weights":[9.2719365E-3,1.0724355E0,-1.3635982E0,3.9051116E-1,1.2698641E0,-1.5661421E0,5.167703E-1,8.777616E-1,8.798698E-3,1.2923795E0,-1.2514853E-2,-1.5925207E0,7.4514526E-1,-1.0037392E0,7.3771715E-1,6.469726E-1,1.2636307E0,-3.6739406E-1,6.1128134E-1,3.1513268E-1,1.3103865E0,-6.398123E-2,9.757323E-1,-1.595741E0,4.4141106E-2,-8.072004E-1,1.1774696E0,4.541161E-2,-1.4136672E0,4.195549E-1,5.485395E-2,-8.168579E-1,9.5215106E-1,-2.1249694E-1,5.280796E-2,6.1931646E-1,-8.715949E-1,-1.0664158E0,7.843882E-1,-1.4554741E0,1.261889E0,1.097947E0,1.3486118E0,1.1522149E0,-2.7444614E-2,-1.6171566E0,-1.2494618E0,-5.883734E-2,1.3584317E-2,3.8329002E-1,5.407938E-2,-1.5621877E0,1.0700425E-2,-5.756077E-2,5.334059E-1,-1.1652008E0,4.7711663E-2,5.8546454E-1,1.2377708E0,-3.0550977E-2,1.6390784E-2,-1.3901988E-1,1.0327843E0,-1.7524487E-1,-1.2769992E0,2.44435E-2,-1.4229544E0,1.1483446E0,1.5292637E-1,-6.8269335E-2,8.222177E-3,-4.628098E-6,5.4467466E-2,-6.8258554E-1,1.1737716E0,-2.1096693E-2,1.3512206E0,1.2574921E0,9.985682E-3,-1.3706453E0,-1.6347774E0,-1.4866265E0,-5.208602E-1,-1.6958322E-2,4.2617477E-2,-8.238912E-1,-6.864403E-2,-1.7589721E-1,8.541442E-1,-5.388494E-2,3.76146E-2,1.9439391E-4,4.524265E-2,5.5575375E-2,-1.07233655E-2,-4.4561453E-2,4.5244772E-2,4.630307E-2,-5.2258566E-2,5.469553E-3,-4.7654837E-2,-7.173863E-2,-3.6127944E-2,-1.1004679E-2,-6.572219E-2,2.0684242E-2,5.184354E-2,-1.9399172E-2,3.0724635E-2,-6.0948823E-2,2.8075418E-2,4.926222E-2,2.3205748E-2,4.3379895E-2,5.4385465E-2,5.428851E-2,3.5743385E-3,-6.459696E-2,-1.0200679E-2,-6.682203E-2,-6.185065E-2,-6.135525E-2,-1.442271E-2,-4.3220878E-2,3.0034916E-2,-2.4698083E-3,-5.524781E-2,2.4995308E-3,-6.1719883E-2,-1.7459733E-2,3.804902E-2],"categories":[],"categories_nodes":[],"categories_segments":[],"categories_sizes":[],"default_left":[0,0,0,0,0,0,0,0,0,0,0,0,0,0,0,0,0,0,0,0,0,0,0,0,0,0,0,0,0,0,0,0,0,0,0,0,0,0,0,0,0,0,0,0,0,0,0,0,0,0,0,0,0,0,0,0,0,0,0,0,0,0,0,0,0,0,0,0,0,0,0,0,0,0,0,0,0,0,0,0,0,0,0,0,0,0,0,0,0,0,0,0,0,0,0,0,0,0,0,0,0,0,0,0,0,0,0,0,0,0,0,0,0,0,0,0,0,0,0,0,0,0,0,0,0,0,0,0,0,0,0],"id":9,"left_children":[1,3,5,7,9,11,13,15,17,19,21,23,25,27,29,31,33,35,37,39,41,-1,43,45,-1,47,49,-1,51,53,-1,55,57,59,-1,61,63,65,67,69,71,73,75,77,-1,79,81,-1,-1,83,-1,85,-1,-1,87,89,-1,91,93,-1,-1,95,97,99,101,-1,103,105,107,-1,-1,-1,-1,109,111,-1,113,115,-1,117,119,121,123,-1,-1,125,-1,127,129,-1,-1,-1,-1,-1,-1,-1,-1,-1,-1,-1,-1,-1,-1,-1,-1,-1,-1,-1,-1,-1,-1,-1,-1,-1,-1,-1,-1,-1,-1,-1,-1,-1,-1,-1,-1,-1,-1,-1,-1,-1,-1],"loss_changes":[9.079816E3,4.7134204E2,1.034917E3,1.4659128E2,7.862793E1,1.5071973E2,8.964241E1,2.98331E1,1.0073704E2,4.6433594E1,7.6615105E1,2.285498E1,1.9979147E1,3.1402393E1,4.5966904E1,9.858986E1,1.111322E1,1.366121E2,5.0441742E1,8.521573E1,1.9571777E1,0E0,9.650068E0,1.5650391E1,0E0,5.7180486E0,2.4393482E0,0E0,7.782192E0,3.365092E1,0E0,2.8162937E1,1.8120102E1,2.247168E0,0E0,2.9392109E1,5.0858856E1,1.0732176E1,3.544288E1,7.9135437E0,4.291172E0,5.5626007E1,1.1649414E1,2.1571312E0,0E0,7.3476562E0,2.4202423E1,0E0,0E0,3.5824006E0,0E0,1.380249E0,0E0,0E0,3.380091E1,1.4004219E1,0E0,2.5729504E1,2.3560684E1,0E0,0E0,4.2881165E1,1.9125816E1,2.1832256E1,2.0204147E1,0E0,2.8519802E0,8.327316E0,2.3211851E1,0E0,0E0,0E0,0E0,2.1123875E1,1.2467468E1,0E0,3.2539062E0,2.5719948E0,0E0,4.258432E1,3.8061523E0,5.0724945E0,2.7480247E1,0E0,0E0,2.6004686E0,0E0,1.5463044E1,1.32367935E1,0E0,0E0,0E0,0E0,0E0,0E0,0E0,0E0,0E0,0E0,0E0,0E0,0E0,0E0,0E0,0E0,0E0,0E0,0E0,0E0,0E0,0E0,0E0,0E0,0E0,0E0,0E0,0E0,0E0,0E0,0E0,0E0,0E0,0E0,0E0,0E0,0E0,0E0,0E0,0E0,0E0,0E0],"parents":[2147483647,0,0,1,1,2,2,3,3,4,4,5,5,6,6,7,7,8,8,9,9,10,10,11,11,12,12,13,13,14,14,15,15,16,16,17,17,18,18,19,19,20,20,22,22,23,23,25,25,26,26,28,28,29,29,31,31,32,32,33,33,35,35,36,36,37,37,38,38,39,39,40,40,41,41,42,42,43,43,45,45,46,46,49,49,51,51,54,54,55,55,57,57,58,58,61,61,62,62,63,63,64,64,66,66,67,67,68,68,73,73,74,74,76,76,77,77,79,79,80,80,81,81,82,82,85,85,87,87,88,88],"right_children":[2,4,6,8,10,12,14,16,18,20,22,24,26,28,30,32,34,36,38,40,42,-1,44,46,-1,48,50,-1,52,54,-1,56,58,60,-1,62,64,66,68,70,72,74,76,78,-1,80,82,-1,-1,84,-1,86,-1,-1,88,90,-1,92,94,-1,-1,96,98,100,102,-1,104,106,108,-1,-1,-1,-1,110,112,-1,114,116,-1,118,120,122,124,-1,-1,126,-1,128,130,-1,-1,-1,-1,-1,-1,-1,-1,-1,-1,-1,-1,-1,-1,-1,-1,-1,-1,-1,-1,-1,-1,-1,-1,-1,-1,-1,-1,-1,-1,-1,-1,-1,-1,-1,-1,-1,-1,-1,-1,-1,-1],"split_conditions":[2.5892934E-1,6E-1,7.1428573E-1,2.3958978E-16,1.730217E-1,9.906286E-1,1E0,3.782925E-2,5.882353E-2,2.2229682E-1,9.782774E-1,1E0,6.863487E-1,1.28E-16,9.602381E-1,5.227892E-1,6.863487E-1,8.7600805E-2,7.456149E-1,1.412123E-1,1.4176469E-1,-6.398123E-2,5.32E-11,6.511628E-1,4.4141106E-2,7.856796E-2,5.0179267E-1,4.541161E-2,8.5E-1,3.4824563E-3,5.485395E-2,8.306094E-4,9.63E-13,9.935738E-1,5.280796E-2,4.1476637E-2,9.65E-16,5.8222973E-1,1.0003118E-11,7.407407E-1,6.3639915E-1,3.5520187E-1,1.757469E-3,9.259633E-1,-2.7444614E-2,1.28E-16,1E0,-5.883734E-2,1.3584317E-2,6.9785975E-2,5.407938E-2,4.7193575E-1,1.0700425E-2,-5.756077E-2,1.10275924E-1,2.4068134E-1,4.7711663E-2,6.0628713E-3,2.7983677E-1,-3.0550977E-2,1.6390784E-2,6.798298E-1,9.602381E-1,2.4393913E-1,4.4237626E-1,2.44435E-2,4.6889436E-1,2.54508E-1,2.6531804E-1,-6.8269335E-2,8.222177E-3,-4.628098E-6,5.4467466E-2,6.25E-2,1.48E-11,-2.1096693E-2,1.0025194E-2,9.915005E-1,9.985682E-3,1E0,9.999666E-1,2.8051814E-1,1.8867925E-2,-1.6958322E-2,4.2617477E-2,1.8181819E-1,-6.864403E-2,1.2659976E-1,9.519391E-3,-5.388494E-2,3.76146E-2,1.9439391E-4,4.524265E-2,5.5575375E-2,-1.07233655E-2,-4.4561453E-2,4.5244772E-2,4.630307E-2,-5.2258566E-2,5.469553E-3,-4.7654837E-2,-7.173863E-2,-3.6127944E-2,-1.1004679E-2,-6.572219E-2,2.0684242E-2,5.184354E-2,-1.9399172E-2,3.0724635E-2,-6.0948823E-2,2.8075418E-2,4.926222E-2,2.3205748E-2,4.3379895E-2,5.4385465E-2,5.428851E-2,3.5743385E-3,-6.459696E-2,-1.0200679E-2,-6.682203E-2,-6.185065E-2,-6.135525E-2,-1.442271E-2,-4.3220878E-2,3.0034916E-2,-2.4698083E-3,-5.524781E-2,2.4995308E-3,-6.1719883E-2,-1.7459733E-2,3.804902E-2],"split_indices":[11,3,3,15,13,15,1,5,5,8,13,5,7,1,15,8,7,12,7,5,12,0,1,3,0,5,3,0,3,5,0,1,1,13,0,15,1,15,1,3,3,8,5,15,0,1,11,0,0,5,0,11,0,0,12,4,0,5,12,0,0,8,15,11,8,0,3,8,12,0,0,0,0,5,1,0,5,8,0,7,11,15,5,0,0,5,0,4,5,0,0,0,0,0,0,0,0,0,0,0,0,0,0,0,0,0,0,0,0,0,0,0,0,0,0,0,0,0,0,0,0,0,0,0,0,0,0,0,0,0,0],"split_type":[0,0,0,0,0,0,0,0,0,0,0,0,0,0,0,0,0,0,0,0,0,0,0,0,0,0,0,0,0,0,0,0,0,0,0,0,0,0,0,0,0,0,0,0,0,0,0,0,0,0,0,0,0,0,0,0,0,0,0,0,0,0,0,0,0,0,0,0,0,0,0,0,0,0,0,0,0,0,0,0,0,0,0,0,0,0,0,0,0,0,0,0,0,0,0,0,0,0,0,0,0,0,0,0,0,0,0,0,0,0,0,0,0,0,0,0,0,0,0,0,0,0,0,0,0,0,0,0,0,0,0],"sum_hessian":[6.2188364E3,3.5049001E3,2.713936E3,7.876875E2,2.7172126E3,2.45023E3,2.6370618E2,3.4532437E2,4.4236313E2,2.6703972E3,4.681544E1,2.4229314E3,2.7298595E1,3.295073E1,2.3075543E2,2.1792116E2,1.2740322E2,2.7246133E2,1.6990181E2,4.8750523E1,2.6216467E3,1.7766706E1,2.9048735E1,2.4204854E3,2.446018E0,5.7072325E0,2.1591364E1,4.9753923E0,2.7975338E1,1.5483092E2,7.592452E1,3.724863E1,1.8067252E2,4.535177E0,1.2286804E2,9.19975E1,1.8046382E2,1.535433E1,1.5454747E2,1.6761156E1,3.1989367E1,4.0472156E2,2.2169253E3,2.6591635E1,2.4571009E0,2.275781E3,1.4470425E2,3.4912076E0,2.2160249E0,4.5688486E0,1.7022514E1,2.582421E1,2.1511302E0,8.2144985E0,1.4661642E2,3.2146473E1,5.1021585E0,8.059821E1,1.0007431E2,2.369388E0,2.1657894E0,3.2609932E1,5.9387566E1,6.702171E1,1.1344211E2,2.5170882E0,1.2837242E1,9.7420296E1,5.7127182E1,1.4587267E1,2.1738882E0,2.3440614E0,2.9645306E1,1.6150494E1,3.8857104E2,2.745911E0,2.2141794E3,2.336257E1,3.2290645E0,1.5745624E2,2.118325E3,1.0828056E2,3.642369E1,2.198755E0,2.3700936E0,5.6628933E0,2.0161316E1,4.569753E1,1.00918884E2,2.996516E1,2.1813135E0,3.962416E1,4.0974052E1,9.105081E1,9.023498E0,1.8562302E1,1.404763E1,5.6900005E1,2.4875598E0,5.1864613E1,1.5157103E1,4.5924488E1,6.751762E1,2.500624E0,1.0336618E1,1.9458843E1,7.796145E1,2.8069897E1,2.9057283E1,1.00290165E1,6.121477E0,3.5296982E2,3.560123E1,7.206416E1,2.1421152E3,2.1297024E1,2.065546E0,1.2873186E2,2.8724382E1,1.4950651E3,6.2325977E2,1.0348679E2,4.793771E0,2.545187E1,1.097182E1,2.936832E0,2.7260613E0,3.9662586E1,6.0349455E0,6.7433863E0,9.41755E1],"tree_param":{"num_deleted":"0","num_feature":"50","num_nodes":"131","size_leaf_vector":"1"}},{"base_weights":[3.919708E-3,8.256302E-1,-1.306081E0,-1.2889041E0,1.0850286E0,-1.4938899E0,7.032212E-1,-1.4160496E0,4.5876032E-1,-7.145943E-1,1.2882859E0,-1.5304091E0,7.3044294E-1,-8.124179E-1,1.0193013E0,-1.4718198E0,4.923526E-2,-1.005657E0,1.182279E0,-1.0444596E0,1.0893805E0,7.54331E-1,1.3250715E0,-1.6039028E0,-1.3248539E0,1.1709064E0,-1.1579319E0,-1.2394073E0,9.230459E-1,-3.8796034E-2,1.0908296E0,-1.6399561E0,-1.195161E0,-0E0,-5.6404438E-2,5.1081818E-2,8.697584E-3,-1.454259E0,-5.81837E-1,6.32158E-1,5.3551123E-2,3.734812E-1,1.1065791E0,1.3430042E0,1.0462587E0,-1.0377482E0,-1.6165309E0,-4.3588647E-1,-1.5995518E0,5.376484E-2,-3.2895198E-3,-5.605567E-2,-1.8667733E-2,-5.846416E-2,-1.736307E-5,8.955043E-3,4.5596384E-2,7.472604E-1,1.2257228E0,-6.612301E-2,-1.5828652E-2,-1.463132E0,6.064425E-1,-1.4852254E0,1.6992506E-2,-1.47014E-1,-9.899879E-1,4.683163E-2,-7.705932E-1,-5.781668E-1,8.952524E-1,1.2042736E0,-3.2419473E-1,6.003227E-1,1.3464327E0,1.2027239E0,5.021639E-1,3.7545174E-1,-1.5457015E0,-1.4251145E0,-1.6340679E0,-9.277056E-1,1.3994144E0,3.8794048E-2,-1.6168028E0,4.322607E-2,-4.158621E-2,8.709897E-1,-4.763443E-2,5.11996E-2,8.447811E-1,-6.347664E-2,-3.286019E-2,-3.2022163E-2,5.8246125E-2,-4.546956E-2,-6.6771075E-2,-1.092879E-2,4.1482985E-2,2.1156015E-2,-4.5061972E-2,-6.276161E-2,1.53383715E-2,3.1778455E-2,-3.85096E-2,2.57655E-3,5.0019458E-2,5.017719E-2,1.8023359E-2,-5.4496024E-2,4.196589E-2,-2.4907103E-2,4.6914313E-2,4.6429094E-2,5.426924E-2,5.1503167E-2,3.8534477E-2,-1.4905267E-3,4.091691E-2,-4.534562E-2,5.3349026E-2,-2.4961468E-2,-6.475382E-2,-5.84574E-2,-9.965072E-3,-2.9201975E-2,-6.544034E-2,1.9254421E-3,-5.1140215E-2,1.2307578E-2,6.539152E-2,9.6787227E-4,-6.507527E-2,1.9146925E-2,4.941682E-2,5.274463E-3,4.255022E-2],"categories":[],"categories_nodes":[],"categories_segments":[],"categories_sizes":[],"default_left":[0,0,0,0,0,0,0,0,0,0,0,0,0,0,0,0,0,0,0,0,0,0,0,0,0,0,0,0,0,0,0,0,0,0,0,0,0,0,0,0,0,0,0,0,0,0,0,0,0,0,0,0,0,0,0,0,0,0,0,0,0,0,0,0,0,0,0,0,0,0,0,0,0,0,0,0,0,0,0,0,0,0,0,0,0,0,0,0,0,0,0,0,0,0,0,0,0,0,0,0,0,0,0,0,0,0,0,0,0,0,0,0,0,0,0,0,0,0,0,0,0,0,0,0,0,0,0,0,0,0,0,0,0,0,0,0,0],"id":10,"left_children":[1,3,5,7,9,11,13,15,17,19,21,23,25,27,29,31,-1,33,35,37,39,41,43,45,47,49,51,53,55,-1,57,59,61,-1,-1,-1,-1,63,65,67,-1,69,71,73,75,77,79,81,83,-1,-1,-1,-1,-1,85,-1,-1,87,89,-1,-1,91,93,95,-1,97,99,-1,101,103,105,107,109,111,113,115,117,119,121,123,125,127,129,-1,131,-1,-1,133,-1,-1,135,-1,-1,-1,-1,-1,-1,-1,-1,-1,-1,-1,-1,-1,-1,-1,-1,-1,-1,-1,-1,-1,-1,-1,-1,-1,-1,-1,-1,-1,-1,-1,-1,-1,-1,-1,-1,-1,-1,-1,-1,-1,-1,-1,-1,-1,-1],"loss_changes":[6.581158E3,2.062224E3,8.904507E2,9.206409E1,1.2253494E3,1.7629736E2,9.765872E1,5.843152E1,3.1480106E1,2.036224E2,5.7874023E1,2.9625977E1,3.0844152E1,2.7387886E1,2.4932419E1,1.5245361E1,0E0,3.993846E0,1.3676662E0,5.3594177E1,5.005375E0,2.5781975E1,1.2418457E1,9.191406E0,1.3701038E2,6.5937195E0,3.6494732E-1,7.801914E0,7.4735165E-1,0E0,6.4135284E0,2.9105835E0,7.147388E1,0E0,0E0,0E0,0E0,9.585083E0,2.4085167E1,1.662648E1,0E0,4.8216663E1,1.4647507E1,5.7158203E0,1.4109283E1,2.7218052E1,2.472412E0,1.22906105E2,2.0735596E1,0E0,0E0,0E0,0E0,0E0,7.249324E0,0E0,0E0,1.2649616E1,1.0804443E0,0E0,0E0,8.579132E0,2.4624462E1,7.4345093E0,0E0,1.0325315E1,1.5271164E1,0E0,6.53539E0,1.9011887E1,1.822358E1,2.8617706E0,1.1728763E1,1.0633198E1,3.1953125E0,1.2749786E0,1.1627903E1,1.6746391E1,6.1428833E-1,5.2733154E0,1.001709E0,3.6792023E1,6.713524E0,0E0,7.2872314E0,0E0,0E0,5.8526115E0,0E0,0E0,2.4708052E0,0E0,0E0,0E0,0E0,0E0,0E0,0E0,0E0,0E0,0E0,0E0,0E0,0E0,0E0,0E0,0E0,0E0,0E0,0E0,0E0,0E0,0E0,0E0,0E0,0E0,0E0,0E0,0E0,0E0,0E0,0E0,0E0,0E0,0E0,0E0,0E0,0E0,0E0,0E0,0E0,0E0,0E0,0E0,0E0,0E0,0E0],"parents":[2147483647,0,0,1,1,2,2,3,3,4,4,5,5,6,6,7,7,8,8,9,9,10,10,11,11,12,12,13,13,14,14,15,15,17,17,18,18,19,19,20,20,21,21,22,22,23,23,24,24,25,25,26,26,27,27,28,28,30,30,31,31,32,32,37,37,38,38,39,39,41,41,42,42,43,43,44,44,45,45,46,46,47,47,48,48,54,54,57,57,58,58,61,61,62,62,63,63,65,65,66,66,68,68,69,69,70,70,71,71,72,72,73,73,74,74,75,75,76,76,77,77,78,78,79,79,80,80,81,81,82,82,84,84,87,87,90,90],"right_children":[2,4,6,8,10,12,14,16,18,20,22,24,26,28,30,32,-1,34,36,38,40,42,44,46,48,50,52,54,56,-1,58,60,62,-1,-1,-1,-1,64,66,68,-1,70,72,74,76,78,80,82,84,-1,-1,-1,-1,-1,86,-1,-1,88,90,-1,-1,92,94,96,-1,98,100,-1,102,104,106,108,110,112,114,116,118,120,122,124,126,128,130,-1,132,-1,-1,134,-1,-1,136,-1,-1,-1,-1,-1,-1,-1,-1,-1,-1,-1,-1,-1,-1,-1,-1,-1,-1,-1,-1,-1,-1,-1,-1,-1,-1,-1,-1,-1,-1,-1,-1,-1,-1,-1,-1,-1,-1,-1,-1,-1,-1,-1,-1,-1,-1],"split_conditions":[1.1958494E-2,1E0,7.5E-1,7.1020514E-1,1.4020935E-1,9.8375064E-1,2.6466852E-1,1E0,9.7234577E-1,2.985527E-3,2.5468695E-1,2.7711982E-1,1.9829415E-2,6.780719E-1,9.9998957E-1,5E-1,4.923526E-2,6.972009E-1,1.4121522E-12,5.8741476E-2,9.90308E-3,5.7498205E-1,3.0708647E-1,5.1402956E-1,3.069653E-1,1.2659976E-1,4.5401108E-1,9E-1,9.9284095E-1,-3.8796034E-2,2.9742485E-1,9.741841E-1,9.9617136E-1,-0E0,-5.6404438E-2,5.1081818E-2,8.697584E-3,8.888889E-1,9.65E-16,6.132833E-3,5.3551123E-2,5.956076E-1,9.610005E-1,2.3269297E-1,1.0003118E-11,9.077005E-2,4.2913023E-1,3.0555075E-1,1.2989426E-1,5.376484E-2,-3.2895198E-3,-5.605567E-2,-1.8667733E-2,-5.846416E-2,9.517671E-2,8.955043E-3,4.5596384E-2,2.5735804E-1,7.293904E-1,-6.612301E-2,-1.5828652E-2,9.796459E-1,1.0465906E-1,1.28E-16,1.6992506E-2,7.741935E-1,2.3995854E-1,4.683163E-2,5.628728E-1,1.9222198E-4,6.3502945E-2,8.8905346E-1,2.25E-15,2.9362872E-1,2.8127226E-1,2.01E-16,7.39E-10,5.0492173E-1,1.9829415E-2,3.5959905E-1,1.862729E-1,6.073907E-1,3.060169E-1,3.8794048E-2,1.6666667E-1,4.322607E-2,-4.158621E-2,8.5714287E-1,-4.763443E-2,5.11996E-2,8.2674193E-1,-6.347664E-2,-3.286019E-2,-3.2022163E-2,5.8246125E-2,-4.546956E-2,-6.6771075E-2,-1.092879E-2,4.1482985E-2,2.1156015E-2,-4.5061972E-2,-6.276161E-2,1.53383715E-2,3.1778455E-2,-3.85096E-2,2.57655E-3,5.0019458E-2,5.017719E-2,1.8023359E-2,-5.4496024E-2,4.196589E-2,-2.4907103E-2,4.6914313E-2,4.6429094E-2,5.426924E-2,5.1503167E-2,3.8534477E-2,-1.4905267E-3,4.091691E-2,-4.534562E-2,5.3349026E-2,-2.4961468E-2,-6.475382E-2,-5.84574E-2,-9.965072E-3,-2.9201975E-2,-6.544034E-2,1.9254421E-3,-5.1140215E-2,1.2307578E-2,6.539152E-2,9.6787227E-4,-6.507527E-2,1.9146925E-2,4.941682E-2,5.274463E-3,4.255022E-2],"split_indices":[1,7,3,3,2,15,2,21,6,1,2,2,6,15,1,7,0,6,1,2,1,8,2,1,2,4,2,3,15,0,2,8,6,0,0,0,0,3,1,1,0,3,8,3,1,2,3,2,8,0,0,0,0,0,15,0,0,4,8,0,0,6,2,1,0,3,8,0,8,15,15,15,1,2,2,1,1,3,6,15,8,8,2,0,3,0,0,3,0,0,3,0,0,0,0,0,0,0,0,0,0,0,0,0,0,0,0,0,0,0,0,0,0,0,0,0,0,0,0,0,0,0,0,0,0,0,0,0,0,0,0,0,0,0,0,0,0],"split_type":[0,0,0,0,0,0,0,0,0,0,0,0,0,0,0,0,0,0,0,0,0,0,0,0,0,0,0,0,0,0,0,0,0,0,0,0,0,0,0,0,0,0,0,0,0,0,0,0,0,0,0,0,0,0,0,0,0,0,0,0,0,0,0,0,0,0,0,0,0,0,0,0,0,0,0,0,0,0,0,0,0,0,0,0,0,0,0,0,0,0,0,0,0,0,0,0,0,0,0,0,0,0,0,0,0,0,0,0,0,0,0,0,0,0,0,0,0,0,0,0,0,0,0,0,0,0,0,0,0,0,0,0,0,0,0,0,0],"sum_hessian":[6.111853E3,3.756192E3,2.3556611E3,4.099615E2,3.3462305E3,2.1545796E3,2.0108171E2,3.8238904E2,2.7572466E1,3.3927847E2,3.006952E3,2.1201282E3,3.445135E1,3.4372944E1,1.6670877E2,3.7497025E2,7.4187946E0,8.943157E0,1.8629309E1,2.8723303E2,5.2045456E1,1.9536652E2,2.8115854E3,1.5563756E3,5.637526E2,2.8286434E1,6.164917E0,2.7861437E1,6.511505E0,5.3020167E0,1.6140675E2,2.2993842E2,1.4503181E2,2.8773124E0,6.0658445E0,1.6574165E1,2.0551426E0,1.510609E2,1.3617213E2,1.975824E1,3.2287216E1,9.499853E1,1.00368E2,2.6377542E3,1.7383136E2,3.5945164E1,1.5204304E3,1.3377751E2,4.299751E2,2.4857706E1,3.4287288E0,3.6923943E0,2.4725227E0,2.3405367E1,4.45607E0,2.1318536E0,4.3796515E0,4.7558243E1,1.138485E2,2.2713461E2,2.8038163E0,1.2646478E2,1.8567032E1,1.4887039E2,2.1905107E0,6.6709E1,6.946313E1,1.44473505E1,5.3108892E0,3.3534992E1,6.1463535E1,9.416643E1,6.2015667E0,1.3064151E1,2.62469E3,1.3392444E2,3.990691E1,9.520826E0,2.642434E1,1.3498856E2,1.3854419E3,1.0593763E2,2.7839878E1,2.4606624E0,4.2751443E2,2.1184127E0,2.3376575E0,4.527039E1,2.2878551E0,9.7356895E1,1.6491608E1,1.0464697E2,2.181781E1,6.9684544E0,1.15985775E1,5.4119366E1,9.475102E1,6.105516E1,5.653837E0,5.4327497E0,6.403038E1,2.977751E0,2.3331385E0,7.0491486E0,2.6485844E1,1.8846727E1,4.2616806E1,8.754354E1,6.6228895E0,3.5777075E0,2.6238592E0,4.0820932E0,8.982058E0,1.4439015E2,2.4802998E3,9.533175E1,3.8592693E1,1.9963833E1,1.9943079E1,3.5860884E0,5.9347377E0,2.7442143E0,2.3680124E1,1.3062636E2,4.3621883E0,3.8861802E0,1.3815557E3,2.8165543E1,7.777209E1,5.422228E0,2.241765E1,2.540665E0,4.2497375E2,2.3047361E1,2.2223026E1,4.3589473E0,1.213266E1],"tree_param":{"num_deleted":"0","num_feature":"50","num_nodes":"137","size_leaf_vector":"1"}},{"base_weights":[3.2526273E-3,-1.2805421E0,1.0639263E0,-1.4497026E0,5.733065E-1,-6.444403E-1,1.2806982E0,-1.4848839E0,5.860578E-1,-1.262564E0,9.0796995E-1,-9.4597614E-1,1.0056747E0,8.5498405E-1,1.305057E0,4.417062E-2,-1.493619E0,-1.0486356E0,1.1792631E0,-1.4998251E0,-7.5505483E-3,1.020449E0,-7.6542294E-1,-1.4436237E0,-5.063813E-1,-6.866261E-1,1.1577861E0,5.6758434E-1,1.1239891E0,1.324E0,1.0307916E0,-1.5221596E0,-1.126279E0,-5.0124567E-2,-7.844359E-3,1.3083211E0,-7.4104723E-3,-6.407742E-2,-2.4454445E-2,-5.0668135E-2,4.5294385E-2,3.592334E-1,1.1485941E0,1.7489541E-2,-1.1212478E0,-1.515167E0,4.082797E-2,7.517018E-2,-9.789955E-1,-4.7222134E-3,-3.8744796E-2,5.3975627E-2,7.2305334E-1,-3.272256E-1,9.773175E-1,3.4272873E-1,1.1764803E0,5.8328307E-1,1.3274621E0,1.1736896E0,5.587065E-1,-1.5259883E0,-6.026765E-1,-6.395527E-2,-3.5118052E-1,1.4228234E-2,5.4594856E-2,-4.595088E-1,7.5037956E-1,1.6720751E-1,1.1754625E0,-5.4493498E-2,-1.3843091E-2,-1.2106444E0,-6.664082E-2,2.6534608E-1,-1.5411522E0,-2.9098657E-1,-1.2267028E0,-6.1470922E-2,4.6626743E-2,7.8308386E-1,-7.520038E-1,1.2852112E0,1.0121469E-1,3.1560197E-2,-8.315498E-3,5.408203E-1,1.2142315E0,-2.881313E-2,4.621574E-2,1.1444513E0,1.3365011E0,1.2288435E0,2.9749858E-1,9.5896965E-1,-1.4222229E-1,-4.1954022E-2,-6.126959E-2,-5.9483767E-2,2.2472853E-2,-5.3635992E-2,2.8118758E-2,2.8300289E-2,-4.7362674E-2,1.0133565E-2,5.203755E-2,3.7947066E-2,-2.6364092E-2,4.2101625E-2,5.3426713E-2,-6.1835602E-2,-2.7765557E-2,4.029862E-2,-6.502889E-3,-7.115609E-2,-2.3281977E-2,4.786377E-2,-3.926159E-2,-5.3085618E-2,3.1792555E-2,-3.3230754E-3,4.7797278E-2,4.163422E-2,-4.2820692E-2,5.316758E-2,1.3917085E-2,4.1234575E-2,-3.9762165E-2,-9.921122E-3,4.1574687E-2,5.0015606E-2,2.0563884E-2,4.7011927E-2,1.1763037E-2,1.6678672E-2,5.3487446E-2,5.0204247E-2,-2.1483658E-3,-2.6617784E-2,2.6005952E-2,4.3377113E-2,8.068201E-3,1.9284613E-2,-6.261513E-2],"categories":[],"categories_nodes":[],"categories_segments":[],"categories_sizes":[],"default_left":[0,0,0,0,0,0,0,0,0,0,0,0,0,0,0,0,0,0,0,0,0,0,0,0,0,0,0,0,0,0,0,0,0,0,0,0,0,0,0,0,0,0,0,0,0,0,0,0,0,0,0,0,0,0,0,0,0,0,0,0,0,0,0,0,0,0,0,0,0,0,0,0,0,0,0,0,0,0,0,0,0,0,0,0,0,0,0,0,0,0,0,0,0,0,0,0,0,0,0,0,0,0,0,0,0,0,0,0,0,0,0,0,0,0,0,0,0,0,0,0,0,0,0,0,0,0,0,0,0,0,0,0,0,0,0,0,0,0,0,0,0,0,0,0,0],"id":11,"left_children":[1,3,5,7,9,11,13,15,17,19,21,23,25,27,29,-1,31,33,35,37,39,41,43,45,47,49,51,53,55,57,59,61,63,-1,-1,65,-1,-1,-1,-1,-1,67,69,-1,71,73,-1,75,77,-1,-1,-1,79,81,83,85,87,89,91,93,95,97,99,-1,101,-1,-1,103,105,107,109,-1,-1,111,-1,113,115,117,119,-1,-1,121,123,125,127,-1,-1,129,131,-1,-1,133,135,137,139,141,143,-1,-1,-1,-1,-1,-1,-1,-1,-1,-1,-1,-1,-1,-1,-1,-1,-1,-1,-1,-1,-1,-1,-1,-1,-1,-1,-1,-1,-1,-1,-1,-1,-1,-1,-1,-1,-1,-1,-1,-1,-1,-1,-1,-1,-1,-1,-1,-1],"loss_changes":[8.1657783E3,8.5171436E2,1.216969E3,1.7904443E2,1.4090187E2,1.8523126E2,2.8890137E1,5.6976074E1,4.2859245E1,1.0394676E1,3.714688E1,6.77034E1,1.5684074E1,1.1629059E1,1.2711426E1,0E0,2.3568848E1,1.6854477E0,5.989937E0,1.4977493E0,1.1077184E1,1.480658E1,5.983007E0,2.742389E1,4.6399284E1,6.3133025E-1,3.2591705E0,2.9704239E1,2.8030167E0,5.631836E0,1.1503952E1,6.8164062E0,6.509856E1,0E0,0E0,9.276352E-1,0E0,0E0,0E0,0E0,0E0,1.0311081E1,3.6604462E0,0E0,1.250143E0,4.255554E0,0E0,2.3720161E1,1.5335388E1,0E0,0E0,0E0,2.0386572E1,1.2748975E1,1.4615871E1,1.8651814E0,9.964142E-1,1.12330885E1,2.4570312E0,6.2119293E0,1.2717094E1,4.303711E0,1.2385456E1,0E0,7.34724E1,0E0,0E0,9.822376E0,5.387661E0,4.075787E0,1.2515106E0,0E0,0E0,7.5659637E0,0E0,2.2202694E1,5.798073E-1,2.789125E1,1.4902252E1,0E0,0E0,2.9076643E0,1.2097612E1,1.0458679E0,1.6830389E1,0E0,0E0,2.7844582E0,9.7759247E-1,0E0,0E0,2.8641052E0,7.998047E-1,4.5863495E0,3.7162814E0,2.367653E0,1.594447E1,0E0,0E0,0E0,0E0,0E0,0E0,0E0,0E0,0E0,0E0,0E0,0E0,0E0,0E0,0E0,0E0,0E0,0E0,0E0,0E0,0E0,0E0,0E0,0E0,0E0,0E0,0E0,0E0,0E0,0E0,0E0,0E0,0E0,0E0,0E0,0E0,0E0,0E0,0E0,0E0,0E0,0E0,0E0,0E0,0E0,0E0,0E0,0E0],"parents":[2147483647,0,0,1,1,2,2,3,3,4,4,5,5,6,6,7,7,8,8,9,9,10,10,11,11,12,12,13,13,14,14,16,16,17,17,18,18,19,19,20,20,21,21,22,22,23,23,24,24,25,25,26,26,27,27,28,28,29,29,30,30,31,31,32,32,35,35,41,41,42,42,44,44,45,45,47,47,48,48,52,52,53,53,54,54,55,55,56,56,57,57,58,58,59,59,60,60,61,61,62,62,64,64,67,67,68,68,69,69,70,70,73,73,75,75,76,76,77,77,78,78,81,81,82,82,83,83,84,84,87,87,88,88,91,91,92,92,93,93,94,94,95,95,96,96],"right_children":[2,4,6,8,10,12,14,16,18,20,22,24,26,28,30,-1,32,34,36,38,40,42,44,46,48,50,52,54,56,58,60,62,64,-1,-1,66,-1,-1,-1,-1,-1,68,70,-1,72,74,-1,76,78,-1,-1,-1,80,82,84,86,88,90,92,94,96,98,100,-1,102,-1,-1,104,106,108,110,-1,-1,112,-1,114,116,118,120,-1,-1,122,124,126,128,-1,-1,130,132,-1,-1,134,136,138,140,142,144,-1,-1,-1,-1,-1,-1,-1,-1,-1,-1,-1,-1,-1,-1,-1,-1,-1,-1,-1,-1,-1,-1,-1,-1,-1,-1,-1,-1,-1,-1,-1,-1,-1,-1,-1,-1,-1,-1,-1,-1,-1,-1,-1,-1,-1,-1,-1,-1],"split_conditions":[9.8853326E-1,7.368421E-1,1.6518223E-1,9.8375064E-1,2.3546705E-1,2.985527E-3,2.5468695E-1,1.8870945E-5,6.863487E-1,1.9876854E-1,7.08956E-10,5.723714E-2,6.863487E-1,5.7258874E-1,3.1618673E-1,4.417062E-2,6.511628E-1,4.9449503E-1,1.2659976E-1,3.0713072E-1,6.863487E-1,2.8542957E-1,3.3913788E-1,1.9114052E-1,9.65E-16,4.8130597E-3,9.9111533E-1,5.9254515E-1,1.7640361E-1,2.3269297E-1,1.0003118E-11,9.777825E-1,2.827167E-1,-5.0124567E-2,-7.844359E-3,4.0384614E-1,-7.4104723E-3,-6.407742E-2,-2.4454445E-2,-5.0668135E-2,4.5294385E-2,8.333333E-1,9.548238E-1,1.7489541E-2,3.268483E-2,1.74E-16,4.082797E-2,9.390875E-1,3.065758E-18,-4.7222134E-3,-3.8744796E-2,5.3975627E-2,